svm_type c_svc
kernel_type rbf
gamma 0.000100533
nr_class 2
total_sv 2000
rho -1.72046e-05
label 1 -1
nr_sv 1000 1000
SV
1 6:0.013155501 9:0.10063701 27:0.038305664 41:0.12115256 63:0.056871183 142:0.020468478 206:0.12547429 286:0.073713589 406:0.12335037 578:0.40131235 720:0.13097784 960:0.30321016 1607:0.1702115 2205:0.5118736 3177:0.54580438 4507:0.27290219 
1 6:0.019937159 27:0.019350742 31:0.025329925 37:0.031444061 42:0.11928168 83:0.034438959 127:0.066094262 142:0.0086166594 162:0.035993246 190:0.056980079 202:0.16503957 286:0.074475285 323:0.056850908 386:0.052928428 408:0.039132856 411:0.049789338 480:0.048880258 500:0.068775024 506:0.037179198 555:0.076585822 594:0.063632674 663:0.062197075 673:0.067195279 782:0.075720287 834:0.066969693 923:0.44677126 1146:0.076086212 1191:0.5542227 1225:0.059279677 1302:0.094811739 1305:0.060443447 1379:0.070145407 1544:0.087077382 1936:0.089480148 2451:0.31556692 2796:0.1145037 2833:0.20080971 6242:0.1545693 6574:0.28386003 7639:0.29435159 
1 6:0.030920739 11:0.015438613 15:0.011770805 18:0.18390872 27:0.010003753 31:0.039284434 33:0.019011701 41:0.015819857 63:0.0074261246 75:0.0069629032 83:0.0089019544 98:0.02228589 111:0.021485685 118:0.089988099 142:0.0071272871 172:0.026942596 200:0.033190283 207:0.040629525 226:0.0799187 256:0.023380557 275:0.046206558 285:0.073276631 286:0.077002977 295:0.058341954 308:0.050769881 351:0.024381585 355:0.041354887 367:0.029323906 382:0.030176233 398:0.13361385 408:0.020230513 423:0.026030142 426:0.030928768 433:0.055566145 439:0.037029118 478:0.026942596 480:0.050539254 483:0.033357726 485:0.023775641 502:0.023714705 504:0.036495843 508:0.026656149 513:0.025709525 515:0.024821981 535:0.03257982 550:0.055982187 575:0.035858041 578:0.052402559 585:0.042570044 656:0.033914449 663:0.12861609 671:0.020981559 723:0.03526067 726:0.031661576 761:0.069871154 764:0.031775152 800:0.030297557 806:0.036880662 824:0.076848498 836:0.038959667 922:0.14651586 923:0.51967651 953:0.075083137 963:0.029149331 968:0.047689592 977:0.094474041 1025:0.12563358 1047:0.23230765 1106:0.044023186 1109:0.047536308 1191:0.28651651 1232:0.038898652 1273:0.046126708 1303:0.052660842 1322:0.038599364 1330:0.045372164 1388:0.177807 1410:0.14215643 1503:0.093055814 1538:0.043714084 1664:0.040776822 1781:0.13083979 1782:0.042304484 1956:0.0512077 1963:0.049194388 2067:0.042843303 2205:0.13367885 2453:0.055372753 2456:0.048495789 2529:0.052402559 2674:0.050769167 2837:0.051667634 3395:0.11640354 3448:0.055029924 3887:0.059733796 4453:0.059733796 4511:0.071270038 5176:0.058685298 5549:0.063017201 6197:0.13367885 6239:0.19718734 7292:0.34576731 7579:0.15981539 7699:0.07608547 
1 2:0.038812101 6:0.028522387 29:0.03452925 31:0.036237356 41:0.17511357 42:0.11376406 84:0.055798851 105:0.10099518 134:0.068092027 142:0.0024654235 199:0.044441463 214:0.081454781 286:0.21309084 390:0.086847707 441:0.067041898 452:0.13420271 490:0.098390542 508:0.073765733 599:0.089145141 671:0.058062405 981:0.11284196 998:0.10523477 1045:0.049389366 1056:0.093360385 1058:0.10665374 1191:0.4757274 1245:0.092973907 1289:0.12875698 1391:0.12014205 1612:0.13877322 2285:0.12838162 2574:0.17665775 2634:0.17914408 2837:0.14298018 5555:0.20304713 6319:0.59167811 
1 8:0.11479637 10:0.096191297 14:0.34711033 16:0.12550453 22:0.12161969 47:0.053978339 52:0.09297906 70:0.1312097 71:0.16329917 75:0.046226261 86:0.35437837 89:0.18157197 111:0.07132103 133:0.16452645 142:0.065061692 172:0.089435069 308:0.084264483 317:0.13594643 331:0.089152395 409:0.058243118 423:0.086406208 491:0.27221076 506:0.063801924 667:0.2196905 934:0.36997803 1107:0.22187129 1150:0.12444368 1993:0.16713562 2201:0.1964958 2462:0.20667886 2782:0.21818564 3024:0.19167214 
1 6:0.0096595841 8:0.38892943 9:0.44336359 13:0.25679799 33:0.053452995 71:0.55325662 75:0.058730363 106:0.13522898 123:0.098000647 137:0.15815667 142:0.045087675 199:0.045152537 234:0.06929438 247:0.14214616 286:0.054125085 298:0.095759526 351:0.068550877 457:0.066607665 500:0.099964815 628:0.10496552 723:0.099138338 735:0.12560348 829:0.071658871 937:0.13081712 1043:0.10803301 1045:0.050179608 1269:0.098677385 1499:0.1473342 1895:0.2003817 1931:0.1259209 
1 8:0.27406636 9:0.20828294 71:0.38986258 90:0.38042762 119:0.2848743 142:0.028241662 175:0.26355897 471:0.28382455 543:0.3013686 551:0.40234261 933:0.31640886 
1 6:0.016888056 8:0.2549901 9:0.58135649 10:0.071221266 14:0.17133662 71:0.24181758 75:0.017113257 83:0.043758022 106:0.059105927 112:0.18803131 142:0.065689785 147:0.10871981 162:0.045732894 234:0.060574419 241:0.11151462 284:0.051279332 295:0.14339146 347:0.13873353 373:0.060279687 424:0.17393942 465:0.0718025 491:0.20154832 541:0.17414582 609:0.05979665 723:0.086662833 829:0.12528273 877:0.15910636 1061:0.21904686 1157:0.11573881 1335:0.090765397 2105:0.39279044 
1 6:0.023646098 9:0.27133205 13:0.15715663 58:0.039654968 71:0.33858499 75:0.035942126 84:0.034694461 90:0.16519549 106:0.041379083 112:0.19745642 114:0.041509541 119:0.18555415 132:0.035853536 141:0.053999935 142:0.036790666 153:0.051272169 162:0.032016843 173:0.17674192 176:0.061284048 219:0.049428269 226:0.091674658 234:0.04240715 247:0.086991375 283:0.044314724 306:0.0463882 308:0.043678558 314:0.047173686 323:0.050570226 369:0.052862011 433:0.0478049 456:0.064061062 457:0.04076292 471:0.43136424 509:0.16461503 539:0.054921507 558:0.065624552 571:0.13996745 638:0.072201256 649:0.079144118 663:0.055325768 685:0.062475313 772:0.054772469 908:0.062877819 982:0.066214441 1159:0.060111846 1333:0.16806819 1551:0.063290568 1652:0.070814074 1846:0.077658885 2011:0.24526136 2426:0.090166381 4099:0.11500715 4267:0.11309669 4558:0.41247915 4741:0.10481103 
1 6:0.017336728 11:0.15581099 50:0.49367931 51:0.11774562 74:0.14212356 75:0.070271649 114:0.36520509 137:0.1419274 142:0.022478331 154:0.12532433 181:0.29266824 234:0.12436745 264:0.28543388 284:0.21056676 357:0.16048642 386:0.13807471 941:0.24733595 1891:0.24733595 2333:0.26707434 2365:0.23987514 
1 17:0.22805759 53:0.32231899 63:0.090463547 101:0.81353879 106:0.29295445 114:0.29387806 142:0.043411584 
1 1:0.15415284 59:0.22412996 75:0.14630477 101:0.70162496 142:0.018719852 143:0.31805044 264:0.29713505 303:0.32249938 356:0.34426499 
1 11:0.022286149 13:0.032961525 17:0.054049275 34:0.039524389 50:0.23537515 63:0.13935813 75:0.25127952 82:0.074399 83:0.077101592 101:0.48201841 106:0.52072294 114:0.31341878 137:0.040600668 142:0.054014491 154:0.071702173 159:0.059671747 162:0.026860438 181:0.041861284 234:0.10673207 254:0.04786344 264:0.24495918 284:0.090354133 301:0.044951649 357:0.045909781 366:0.18758904 455:0.07242263 468:0.13279546 518:0.12975215 550:0.040406069 725:0.072102933 735:0.064487768 829:0.036791341 1029:0.076401011 1114:0.06069508 1147:0.090967412 1223:0.060942502 3120:0.094882145 3305:0.10983189 3780:0.10591716 
1 6:0.032344824 11:0.036336721 17:0.022031324 18:0.15149832 25:0.03034398 27:0.17658819 33:0.022373216 36:0.03089147 41:0.018617013 42:0.02418941 46:0.033854523 50:0.19188514 63:0.026217479 72:0.10064473 77:0.18292413 78:0.031061128 83:0.041903742 84:0.023728782 86:0.031408432 113:0.17314673 135:0.073672319 137:0.066197852 140:0.02857049 141:0.33239238 142:0.078632662 145:0.033928071 146:0.036305566 154:0.11690768 159:0.048646262 161:0.039456416 169:0.1178844 181:0.034126619 185:0.094175865 188:0.044686626 189:0.030255302 190:0.03466537 193:0.039216114 199:0.07559595 207:0.14344006 211:0.04021023 215:0.02575726 227:0.057477386 234:0.029003766 246:0.041791059 258:0.038340354 264:0.06656611 284:0.073659496 294:0.077274378 296:0.036459006 301:0.03664598 305:0.17367778 306:0.031726548 309:0.059508994 351:0.028692566 357:0.14970832 363:0.075538999 386:0.032200439 399:0.076245654 423:0.030632609 430:0.031467388 432:0.037980143 434:0.034985398 442:0.034405556 455:0.029520589 459:0.073864972 473:0.035597227 475:0.03276171 478:0.031706396 502:0.055815545 507:0.15132784 510:0.073104198 513:0.030255302 517:0.045082866 532:0.04674821 550:0.032940282 606:0.05205636 609:0.02863136 613:0.037393412 617:0.056681187 622:0.044621941 630:0.055941344 655:0.061228695 709:0.070518653 716:0.11613797 747:0.04455763 758:0.042354825 796:0.035540191 814:0.044882977 827:0.034534703 837:0.043873778 867:0.10662057 1045:0.084012446 1127:0.13977916 1143:0.047986693 1179:0.050418554 1200:0.057681282 1225:0.072128785 1234:0.06906162 1242:0.051324653 1246:0.056874123 1281:0.15693419 1308:0.047227143 1341:0.092880073 1363:0.045776438 1366:0.04381365 1370:0.066470005 1426:0.047986693 1441:0.05270529 1548:0.08898738 1649:0.045920512 1728:0.065582048 2001:0.052975877 2091:0.053537696 2137:0.057070474 2158:0.074159459 2410:0.056491549 2920:0.083871505 3771:0.077350871 3946:0.50862933 4568:0.089538368 
1 6:0.041207535 17:0.2694534 27:0.011998646 33:0.045605818 34:0.098521036 37:0.038994491 53:0.28561848 58:0.055284672 79:0.027944964 83:0.010677133 91:0.19755993 96:0.02553124 98:0.026730019 101:0.040050337 119:0.51737782 142:0.0010685714 145:0.034579683 146:0.074005678 149:0.045880395 160:0.11204937 164:0.048134172 166:0.030746712 179:0.022463032 181:0.034782043 183:0.036251793 186:0.023383793 190:0.035331142 214:0.035304381 218:0.046748967 220:0.033057369 226:0.063903763 258:0.039076707 275:0.027710407 278:0.071149773 291:0.033167463 296:0.037159226 306:0.097007634 323:0.070502096 325:0.074005678 330:0.040982494 333:0.041571749 341:0.068860508 359:0.045880395 377:0.031715909 391:0.042644731 403:0.047725947 429:0.047026347 439:0.04441326 448:0.037317806 465:0.035040196 466:0.038077367 502:0.085331281 507:0.022033456 515:0.029771844 516:0.11553958 546:0.035602297 559:0.05900446 593:0.039690096 597:0.036848585 607:0.040422434 615:0.054713724 620:0.058577746 629:0.10065883 648:0.060147513 651:0.053316071 653:0.042095517 666:0.053854582 670:0.05878909 673:0.041665192 680:0.056834826 687:0.046367524 694:0.060639182 697:0.044176464 699:0.061419256 706:0.041950248 719:0.044353594 723:0.042292158 739:0.084191033 767:0.039417635 774:0.04622619 848:0.091089726 869:0.055169085 876:0.079538328 882:0.12377968 883:0.048051339 962:0.055806245 969:0.0460866 985:0.052802046 1015:0.051498273 1080:0.041665192 1137:0.057966429 1156:0.057769788 1162:0.047806421 1185:0.064852871 1198:0.049087783 1236:0.04541339 1283:0.051059127 1308:0.048134172 1386:0.05900446 1412:0.051724412 1423:0.060147513 1438:0.17104721 1497:0.050030545 1508:0.061419256 1784:0.12029503 1799:0.070999312 1858:0.053056138 1866:0.065606924 1874:0.063808443 1904:0.057576508 1945:0.062852387 1948:0.061970907 2024:0.12039592 2047:0.056656766 2101:0.075583742 2166:0.077645179 2167:0.15529036 2261:0.06255086 2389:0.066003687 2426:0.062852387 2877:0.067285049 2967:0.069256392 3035:0.064493901 3070:0.064493901 3083:0.077645179 3270:0.080168173 3332:0.15767289 3716:0.075583742 3960:0.076567545 4083:0.17096463 4978:0.070999312 6076:0.080168173 
1 11:0.062703714 17:0.0760358 50:0.26489811 63:0.090483307 75:0.16967841 82:0.10466352 83:0.036155164 101:0.40685825 114:0.48990375 137:0.11423296 142:0.025328956 154:0.20173932 181:0.11777979 234:0.1000995 264:0.11486844 284:0.084739328 357:0.12917054 386:0.11113205 623:0.58107185 
1 6:0.042693678 11:0.031975199 12:0.047967886 15:0.024378733 25:0.21361417 27:0.041437917 34:0.056707877 41:0.032764799 50:0.27016484 53:0.054799863 63:0.015380384 77:0.053655874 83:0.055311009 86:0.055276912 111:0.0444994 113:0.076181901 116:0.076181901 122:0.076588665 141:0.064998907 142:0.0055355462 154:0.051437582 159:0.042807216 161:0.069440869 168:0.052847442 180:0.054833554 186:0.040378542 199:0.066522114 264:0.11715227 276:0.055276912 284:0.12963619 286:0.039870574 309:0.10473218 353:0.079822215 364:0.065928795 387:0.050228964 402:0.054235836 411:0.053309751 423:0.05391151 436:0.062851256 473:0.062648933 475:0.057658598 507:0.038046815 535:0.067476669 549:0.075981654 594:0.068131896 631:0.047755539 643:0.057893829 655:0.053879372 709:0.06205425 744:0.087799221 758:0.07454189 854:0.085560549 987:0.058092044 1041:0.10151551 1056:0.069873152 1123:0.080817281 1296:0.072438627 1426:0.16890726 1548:0.078306162 1767:0.10801124 1820:0.090748123 1969:0.097232686 2233:0.10801124 2241:0.099421658 2273:0.12054276 2616:0.094478275 3204:0.14103943 3387:0.15196534 3634:0.12371577 4156:0.11618612 4492:0.22036561 4650:0.11868193 4762:0.60786136 4806:0.15196534 5034:0.1322149 
1 6:0.041390867 13:0.025008351 17:0.020503954 18:0.040284392 27:0.087651111 37:0.017803626 42:0.022512427 46:0.031507484 50:0.21429874 52:0.061355178 57:0.028092235 58:0.025241197 63:0.024399896 68:0.046199516 72:0.046833658 74:0.030846846 75:0.0076259656 76:0.031304817 78:0.14453874 79:0.051035074 83:0.048748342 92:0.024840079 94:0.022588834 97:0.023479338 98:0.048816256 101:0.036571382 113:0.080571477 132:0.022821507 135:0.068564826 139:0.092349147 142:0.020490759 145:0.031575934 148:0.09922887 150:0.032814897 154:0.027200699 159:0.045273754 166:0.084227736 173:0.02812496 186:0.02135257 194:0.029812523 207:0.044498588 214:0.032237682 215:0.023971582 218:0.021344069 246:0.038893803 258:0.035682326 264:0.12390254 283:0.028207227 284:0.091403855 296:0.033931406 299:0.031149892 307:0.14454029 342:0.035151047 347:0.03091104 355:0.067939537 357:0.034832366 386:0.029968074 387:0.07968471 390:0.034372061 402:0.057360886 404:0.031598852 407:0.16285199 412:0.076700571 414:0.027802294 426:0.033874048 439:0.040555322 455:0.02747401 459:0.068744123 462:0.046237892 483:0.03653431 493:0.033591941 500:0.038940415 507:0.02011953 521:0.14841947 534:0.028680443 535:0.035682326 548:0.042602887 555:0.086725778 575:0.07854545 603:0.040285738 631:0.025253598 633:0.039128995 655:0.028491942 656:0.03714405 662:0.039224592 697:0.040339095 754:0.091731599 772:0.034863795 787:0.04322048 792:0.041291073 793:0.045159579 808:0.039272725 815:0.22957097 837:0.040832133 854:0.045245259 876:0.036314633 886:0.032409965 914:0.04821542 941:0.1073648 945:0.11911598 963:0.1596258 984:0.043150006 1006:0.052751641 1054:0.049176528 1058:0.042210772 1082:0.051575229 1099:0.10659994 1109:0.052063089 1113:0.045684664 1127:0.043362889 1175:0.039868532 1184:0.049561334 1199:0.054492578 1207:0.042872823 1283:0.093247796 1292:0.045159579 1319:0.039716326 1322:0.042275099 1324:0.044906722 1341:0.04322048 1426:0.044659911 1429:0.060645782 1446:0.039272725 1472:0.038262417 1551:0.080571477 1570:0.062301232 1609:0.05257515 1653:0.057966471 1865:0.044659911 1921:0.056849224 1963:0.16163719 1985:0.052931201 1988:0.059219455 2030:0.057966471 2186:0.059219455 2200:0.10856799 2342:0.063240466 2733:0.048927734 2760:0.11843891 2825:0.050810104 2901:0.066048034 3102:0.071988354 3115:0.060645782 3137:0.074583039 3543:0.069916539 3825:0.061861828 3890:0.15234912 4253:0.07617456 4594:0.065422117 5213:0.083330927 5277:0.56804099 
1 6:0.008445404 9:0.12921138 17:0.046019958 26:0.036554037 27:0.024590991 31:0.032189358 34:0.20191694 53:0.19512317 80:0.16496659 81:0.10284096 83:0.043765151 142:0.037230276 149:0.18806195 153:0.21974746 186:0.047924628 216:0.073478022 244:0.6213941 306:0.066271751 336:0.15442719 363:0.078894523 409:0.1725239 465:0.071814199 499:0.12581044 518:0.073651168 563:0.12944965 671:0.051576377 709:0.073651168 716:0.080864627 829:0.062651571 1054:0.11037392 1775:0.13699055 2208:0.36073033 3598:0.30610521 
1 6:0.023755739 17:0.043149234 37:0.18733284 41:0.072924336 94:0.095073452 142:0.0020534031 186:0.04493509 199:0.037014427 215:0.050446629 218:0.0449172 240:0.071285723 244:0.11652631 262:0.14821947 283:0.059360267 331:0.061901981 341:0.066162345 344:0.12077928 345:0.11622131 381:0.22835686 390:0.14466752 406:0.074247247 442:0.202154 445:0.24786734 466:0.07317076 485:0.054798942 546:0.068414581 554:0.1005214 577:0.1155815 593:0.076269836 643:0.12885381 655:0.059959431 789:0.08136555 827:0.067637604 982:0.088695281 986:0.070809492 1059:0.072587881 1134:0.096330152 1229:0.089376438 1292:0.095035386 1346:0.14920561 1441:0.10322543 1467:0.097304626 1686:0.13899378 1707:0.090512756 1768:0.1753645 2137:0.11177482 2156:0.25525018 2449:0.099395386 2477:0.35072899 2558:0.13207469 2633:0.33822797 2680:0.15149479 2880:0.1190854 2988:0.13308543 3147:0.12077928 3778:0.13207469 6216:0.1753645 
1 6:0.0098637893 10:0.08319626 34:0.078609469 48:0.060343103 53:0.075964545 72:0.061384685 80:0.06422411 98:0.063983268 100:0.060952509 160:0.268211 161:0.19252034 162:0.053422326 224:0.093806659 244:0.43545345 296:0.088947512 382:0.17327322 470:0.46063596 591:0.10371886 645:0.12550407 662:0.10282303 721:0.13061368 722:0.12669391 906:0.23083565 1117:0.11771812 1214:0.14340445 1530:0.13397773 1795:0.12609245 1873:0.13061368 1989:0.15999778 2185:0.12327069 2218:0.14638156 2862:0.16709852 4148:0.16709852 4355:0.18585816 6823:0.19968337 
1 6:0.015183753 10:0.064033783 17:0.082737982 42:0.045421306 72:0.047246037 96:0.047037519 109:0.083547366 119:0.15886531 132:0.04604491 142:0.0039373684 164:0.088680066 183:0.066788546 186:0.043081167 198:0.19831135 200:0.073341999 204:0.091150931 268:0.073050656 325:0.068172237 335:0.10052961 382:0.066681722 399:0.071584573 406:0.071183969 409:0.038771981 411:0.05687789 445:0.59410219 468:0.10164085 479:0.096153672 515:0.054850202 563:0.11636693 641:0.06007233 697:0.081388576 828:0.11524067 832:0.13460358 886:0.13078136 920:0.099733438 1030:0.11365783 1058:0.085164892 1126:0.16192253 1558:0.091461622 1636:0.11081286 1853:0.11171869 2074:0.25935886 2213:0.31614524 2740:0.10994479 3859:0.35315095 
1 6:0.0044914051 9:0.27486697 13:0.089552289 21:0.054340914 69:0.091134484 98:0.029134318 105:0.095421945 106:0.062877257 118:0.029410334 119:0.09398578 137:0.14707583 142:0.08618682 143:0.11872823 162:0.02432547 179:0.024483526 215:0.028613243 234:0.12887889 244:0.39656116 297:0.043876431 317:0.053539495 331:0.035110699 356:0.12851412 373:0.06412591 391:0.092961038 421:0.19589454 433:0.036320778 445:0.49206478 486:0.13388753 829:0.066638277 831:0.31534814 856:0.067417084 1073:0.060131408 1266:0.061188363 1290:0.067857044 1511:0.10842661 1641:0.078837035 1671:0.070294968 1970:0.061752902 2009:0.093171237 2461:0.076719222 2829:0.089024689 3768:0.087379102 3857:0.20892647 3858:0.20892647 3954:0.072853832 4035:0.19184234 4256:0.099466446 5525:0.10446323 
1 6:0.0073018468 18:0.019543291 22:0.038934165 27:0.010630613 42:0.021843046 57:0.05451389 65:0.026119414 83:0.0094597733 98:0.071047141 118:0.071720235 142:0.0028402128 148:0.032092804 168:0.027115297 171:0.28410681 208:0.027352502 233:0.1727019 240:0.032866842 253:0.039894018 287:0.10166529 291:0.029385856 322:0.063281624 325:0.032783938 327:0.030703918 355:0.043946289 382:0.032067152 403:0.042284445 466:0.033735953 478:0.028630887 492:0.17766184 502:0.025200728 512:0.062362667 557:0.17180148 580:0.066069473 631:0.024502712 641:0.028888704 684:0.068337749 764:0.033766263 767:0.03492341 870:0.12004487 876:0.035234859 932:0.049589706 952:0.10203631 1035:0.044591078 1036:0.12381515 1061:0.047354372 1146:0.041799075 1500:0.04166461 1551:0.039087888 1596:0.071027751 1609:0.051011889 1625:0.049299324 1626:0.052471552 1788:0.044955389 1863:0.043983772 1910:0.044680921 1960:0.071027751 2230:0.45441599 2264:0.049589706 2381:0.21308325 2456:0.051534658 2537:0.32943155 2548:0.050843524 2592:0.049443463 2608:0.064730684 2741:0.057140591 2968:0.055686235 3013:0.069847864 3021:0.33483009 3210:0.25474473 3211:0.25474473 3295:0.068792418 3442:0.1447308 3745:0.077971331 5026:0.16982982 
1 6:0.039888732 9:0.1525705 10:0.084110509 17:0.054339549 22:0.10634532 27:0.058073211 41:0.091836523 42:0.2386496 52:0.2439051 75:0.080841291 77:0.07519608 83:0.051677114 114:0.070022671 127:0.099177234 139:0.081581191 142:0.041374917 147:0.25679067 168:0.074063102 173:0.14907345 203:0.075599456 218:0.11313204 283:0.07475475 347:0.081920392 348:0.09907056 396:0.10128731 402:0.076008868 465:0.084796931 492:0.48526802 512:0.34067652 518:0.086965992 609:0.14123665 622:0.22011715 667:0.096049644 678:0.2158349 684:0.18665868 874:0.2725337 1596:0.19400619 
1 6:0.010303438 9:0.39409642 23:0.22234483 35:0.11180787 85:0.25256958 123:0.41813127 142:0.034733808 167:0.43188894 174:0.30210679 234:0.073913152 339:0.16028255 373:0.073553519 391:0.10662791 449:0.1177727 457:0.071047356 483:0.10003943 1042:0.11739575 1045:0.1070486 1119:0.35828192 1179:0.12848657 1931:0.13431408 
1 6:0.0093580991 59:0.05810882 142:0.0024266914 144:0.055635858 167:0.26150881 233:0.11066799 253:0.10225692 279:0.10595338 397:0.43939074 406:0.08774466 644:0.17833839 772:0.17341252 808:0.09767127 853:0.099026242 1119:0.16270481 1761:0.17903504 1762:0.17903504 1996:0.15984888 2516:0.3641187 2659:0.14567346 4496:0.34776488 5503:0.169593 5515:0.43531023 
1 6:0.030880608 27:0.029972308 33:0.018987026 41:0.031598649 57:0.12808191 58:0.046033228 67:0.019408868 68:0.021063906 84:0.020137426 85:0.021027238 96:0.021258793 98:0.022256966 100:0.021202698 119:0.071799802 132:0.020810179 137:0.028089398 140:0.048492683 142:0.0035590184 144:0.020399075 158:0.024627442 161:0.20090808 167:0.3355908 174:0.075454117 176:0.16006773 183:0.030185347 189:0.051352314 194:0.027185056 214:0.029396477 233:0.36519114 234:0.02461404 240:0.1235545 243:0.03235293 252:0.099050066 253:0.18746422 265:0.032414064 275:0.11536647 278:0.029621716 279:0.038848166 299:0.028404558 300:0.44056089 314:0.082141929 317:0.020450568 325:0.030810712 340:0.039283238 341:0.028668629 366:0.043260889 367:0.029285847 372:0.1016113 377:0.026408507 394:0.031964955 397:0.10740273 398:0.026688086 422:0.062576341 431:0.038259566 457:0.023659693 459:0.031342748 466:0.063410853 480:0.02523683 506:0.019195584 539:0.031877648 541:0.10614462 546:0.029644539 550:0.027954765 594:0.032853488 599:0.032171876 609:0.024297999 626:0.032383447 633:0.10704131 639:0.078952068 643:0.027916649 673:0.034692858 726:0.031620483 748:0.15210982 761:0.034890235 767:0.032821411 793:0.041179529 796:0.030161177 800:0.030258234 816:0.052083477 886:0.029553577 930:0.060082489 955:0.35643797 969:0.038374379 981:0.040723898 1025:0.041823508 1028:0.04174056 1034:0.043260889 1063:0.050284782 1083:0.036783889 1119:0.059656269 1169:0.03866769 1176:0.038727465 1254:0.047175712 1268:0.046467519 1324:0.040948957 1424:0.031906661 1446:0.035811501 1548:0.037759562 1567:0.050284782 1602:0.047323976 1616:0.063754583 1617:0.063754583 1710:0.14334994 1753:0.052083477 1846:0.045074921 1969:0.046886012 2037:0.056409758 2047:0.094351425 2733:0.044615585 2877:0.056025438 3569:0.065643803 4312:0.07598672 4761:0.071177538 5344:0.071177538 5790:0.07598672 6985:0.07598672 
1 6:0.025435153 9:0.053065622 11:0.010390647 27:0.0067328241 37:0.065643169 41:0.021294471 57:0.034525988 58:0.046532997 63:0.0049980033 67:0.026159445 68:0.070975303 75:0.0046862415 80:0.060222109 81:0.014078532 84:0.013570702 85:0.01417035 96:0.028652791 105:0.024562791 111:0.028921013 114:0.016236413 119:0.024193104 140:0.016339718 142:0.005996096 144:0.041241084 158:0.066386173 161:0.045130952 167:0.42000426 174:0.033899244 176:0.20375512 183:0.02034204 185:0.013465004 199:0.021616998 203:0.017529523 204:0.027762184 208:0.017323514 211:0.022996588 212:0.026179953 215:0.014730806 233:0.41017323 240:0.062447949 242:0.016202349 249:0.026387987 252:0.033375141 253:0.075799785 256:0.015735812 265:0.021843982 268:0.022249315 275:0.046647588 278:0.039924414 279:0.026179953 284:0.014042174 290:0.048090414 300:0.56080346 309:0.017016862 314:0.018451938 317:0.013781729 325:0.020763476 336:0.021140488 341:0.019319917 349:0.022922671 351:0.016409534 357:0.02140488 367:0.019735863 372:0.15977805 397:0.25332714 408:0.027231476 409:0.011808929 422:0.021085238 426:0.020815983 454:0.023071377 473:0.020358371 499:0.017222966 501:0.024045207 504:0.024562791 507:0.024727354 509:0.021462998 514:0.049125581 538:0.020261011 539:0.042964979 550:0.018838841 567:0.025091805 580:0.020922318 589:0.073628287 594:0.022140113 611:0.029917353 626:0.02182335 633:0.072135621 639:0.026603076 644:0.022032758 655:0.017508618 657:0.096064147 676:0.02312173 687:0.026018301 695:0.045650871 713:0.02312173 726:0.021309185 730:0.022227323 731:0.026646982 742:0.023731483 748:0.068338327 761:0.023512685 772:0.021424194 776:0.02883482 792:0.025373828 796:0.020325752 800:0.020391159 816:0.035099288 824:0.025860665 827:0.019750704 885:0.032416476 895:0.024045207 908:0.024594593 963:0.019618369 981:0.027444017 997:0.02199032 1002:0.034464309 1019:0.033232488 1023:0.032639112 1063:0.03388714 1102:0.02769885 1117:0.027595685 1169:0.078174988 1190:0.025023215 1204:0.035621047 1215:0.054207235 1225:0.020625547 1232:0.026179953 1236:0.025482906 1245:0.067835868 1268:0.031314669 1280:0.030455997 1288:0.030376191 1297:0.034169164 1393:0.02647315 1412:0.029024222 1497:0.028073739 1500:0.026387987 1626:0.033232488 1698:0.033486301 1705:0.069234392 1722:0.032988439 1761:0.044237652 1762:0.044237652 1781:0.029353026 1836:0.024658679 1855:0.029917353 1865:0.027444017 2173:0.032526818 2311:0.03431502 2441:0.074535029 2470:0.034464309 2561:0.034464309 2629:0.038284807 2650:0.040202626 2699:0.070536969 2733:0.030066642 2877:0.037755793 2912:0.037755793 2971:0.047966861 3425:0.038284807 3654:0.042964499 3688:0.039496956 3786:0.042964499 3862:0.047966861 3987:0.041904625 4312:0.05120779 4632:0.046810123 5539:0.040996723 5577:0.042412455 6199:0.044984926 7355:0.045832115 
1 176:0.14966578 233:0.34145931 278:0.24927083 300:0.41193118 351:0.20490811 397:0.45190441 541:0.29774054 731:0.33274454 955:0.42849639 
1 6:0.016308421 10:0.068776793 37:0.019290724 41:0.037547161 57:0.030438719 58:0.054699079 59:0.10126662 83:0.010564037 84:0.023928339 85:0.049971319 91:0.032577886 118:0.026697441 132:0.024727738 142:0.0031717582 144:0.072717731 158:0.029263609 161:0.039788241 167:0.39876647 176:0.042266847 199:0.057173779 203:0.092726014 212:0.046161414 219:0.034090063 220:0.16353607 233:0.14464638 253:0.089101899 262:0.076314991 275:0.027416889 277:0.073845047 279:0.046161414 290:0.042397355 293:0.038589196 295:0.034617486 299:0.033751775 300:0.11633275 319:0.073971811 323:0.034877657 364:0.037775892 372:0.040246612 388:0.16958942 397:0.19143228 408:0.024007749 411:0.03054543 455:0.029768854 461:0.044613621 465:0.034669039 502:0.028142475 511:0.21152868 561:0.036129664 594:0.078076451 597:0.036458273 643:0.066344033 656:0.080493223 657:0.042345921 663:0.038157496 671:0.024899023 706:0.041505897 731:0.046984897 759:0.060248272 761:0.082916789 838:0.053701085 869:0.054584716 913:0.042553091 932:0.055378441 963:0.034591799 1011:0.097863321 1025:0.049696871 1043:0.045598436 1045:0.042359492 1138:0.040204157 1146:0.093356779 1192:0.05073343 1215:0.047790053 1265:0.052367743 1373:0.04730004 1580:0.28625953 1616:0.30302606 1617:0.30302606 1724:0.062808284 1816:0.04480377 2210:0.062808284 2404:0.063810761 2516:0.39659502 2831:0.067029012 3325:0.084576857 3583:0.079319005 3782:0.078001386 4142:0.087073127 4143:0.087073127 4295:0.078001386 4432:0.080812798 
1 6:0.01474125 9:0.045107073 13:0.01959465 17:0.016065347 35:0.15996484 41:0.013575615 46:0.04937376 63:0.08921692 67:0.016677125 70:0.06783979 75:0.029875647 81:0.017950644 82:0.022114001 83:0.015278204 85:0.054203144 105:0.062636913 106:0.061910873 114:0.020702021 123:0.029911268 137:0.04827179 142:0.064984555 150:0.02571127 167:0.28835736 168:0.021896564 173:0.044073179 190:0.025278154 199:0.12403109 201:0.10615088 212:0.033380398 223:0.040045445 226:0.022860415 229:0.10807714 243:0.055598696 283:0.022101048 284:0.017904286 317:0.052716626 323:0.050441698 339:0.045863628 378:0.040792696 409:0.060227267 415:0.025650825 434:0.02551152 436:0.20833198 446:0.036378322 450:0.21971628 451:0.033485457 459:0.053862691 464:0.082664386 478:0.023120456 485:0.14281941 486:0.043943256 502:0.020350481 504:0.031318457 506:0.049481582 507:0.015764141 520:0.043752907 524:0.19997025 544:0.095645486 545:0.04693938 558:0.032728882 561:0.026126205 582:0.049734107 601:0.039810952 609:0.020878125 612:0.034320162 626:0.055651139 668:0.042532831 712:0.027073686 723:0.15129254 730:0.028340651 742:0.060517017 747:0.032491637 770:0.039696206 816:0.044752877 829:0.043742726 855:0.095034889 856:0.022126975 867:0.077748231 948:0.04722325 996:0.032825762 1034:0.037172042 1045:0.061262278 1061:0.038240334 1064:0.027316631 1102:0.035317047 1134:0.035865696 1179:0.036765451 1203:0.058437624 1239:0.078942968 1244:0.041616063 1339:0.035586721 1361:0.044337942 1365:0.035655568 1366:0.031949123 1377:0.028119764 1392:0.14081814 1416:0.035586721 1424:0.027415889 1522:0.10815487 1544:0.038630263 1590:0.22709069 1610:0.20396348 1620:0.035655568 1730:0.041616063 1746:0.034438258 1855:0.03814572 1931:0.038432949 1999:0.04881453 2020:0.049174121 2071:0.10566087 2567:0.058437624 2640:0.040792696 2818:0.05968462 3167:0.045652632 3280:0.05342993 3510:0.12592923 3526:0.050797438 3535:0.20700096 3543:0.054781308 3840:0.31482307 4334:0.05968462 4384:0.12231901 5042:0.12231901 5107:0.052830437 7339:0.062964614 7453:0.37089494 7804:0.065291807 
1 6:0.037269392 9:0.22400994 10:0.022453512 12:0.19740367 14:0.027008147 18:0.014250144 19:0.25856686 35:0.028887802 37:0.012595659 41:0.11032196 42:0.15927028 48:0.032571527 50:0.025268578 57:0.019874615 65:0.019045176 70:0.030627705 75:0.080927949 77:0.020073783 83:0.062079011 98:0.017268193 101:0.12936709 109:0.029295971 115:0.1792169 116:0.02850124 127:0.026475613 130:0.11903466 132:0.016145695 138:0.11161537 142:0.025541883 171:0.069052903 172:0.020876436 173:0.0596933 176:0.068994142 179:0.014511624 203:0.18163319 210:0.041896413 214:0.045614847 225:0.02536597 234:0.019096943 235:0.40409262 254:0.051383548 264:0.021914555 277:0.024108142 283:0.079823875 286:0.074582071 304:0.080629593 309:0.039182494 317:0.031733378 319:0.024149526 330:0.026475613 347:0.065606565 348:0.026447136 375:0.018871862 390:0.024317449 414:0.019669488 423:0.020169422 433:0.043055356 455:0.019437235 457:0.018356507 466:0.024598835 494:0.09019513 502:0.018375309 506:0.014893003 507:0.014234108 521:0.026250847 522:0.037072954 530:0.021884057 550:0.021688863 572:0.028848212 599:0.024960733 626:0.050249763 631:0.017866344 636:0.027226202 638:0.032513934 647:0.024046502 655:0.020157398 658:0.024620936 691:0.050930117 694:0.039174275 709:0.023215791 728:0.036716575 738:0.032257616 741:0.032257616 778:0.050879752 784:0.026141005 787:0.030577503 789:0.054707583 804:0.025077604 811:0.030235433 819:0.053474055 822:0.035640469 829:0.019748577 885:0.037320582 918:0.030780414 926:0.094397771 944:0.029129956 960:0.030678254 966:0.026590644 981:0.031595868 986:0.023805015 1009:0.023726261 1098:0.029863158 1102:0.031889253 1171:0.088153399 1200:0.037979074 1229:0.090140771 1263:0.036158723 1265:0.034192922 1362:0.094397771 1395:0.056852647 1402:0.048244139 1457:0.035250813 1480:0.038702865 1721:0.034880895 1888:0.048244139 1896:0.048244139 1940:0.047702831 2030:0.041009955 2142:0.034615255 2278:0.043181174 2307:0.037320582 2321:0.045472227 2423:0.034358937 2566:0.045097565 2577:0.038260044 2582:0.050160531 2733:0.034615255 2814:0.13885396 2851:0.047702831 2859:0.10032106 2884:0.044401389 3222:0.095405663 3225:0.53583471 3307:0.051790442 3420:0.056853408 3762:0.048828797 
1 21:0.04061931 61:0.078843206 98:0.08711049 142:0.026117765 243:0.063312305 299:0.05558563 331:0.05248982 451:0.076262274 491:0.24040229 529:0.22938752 576:0.065729888 927:0.086244177 1087:0.68249254 2551:0.36095992 2552:0.12031997 2617:0.12031997 2839:0.1330902 3513:0.10963766 4653:0.13063008 4664:0.14870042 4665:0.14870042 4667:0.14870042 4668:0.14870042 4670:0.14870042 4675:0.14870042 4676:0.14870042 4884:0.13928921 
1 6:0.027854783 11:0.041723377 13:0.092564187 18:0.049701958 25:0.069684512 37:0.065897115 40:0.029007006 41:0.1282611 57:0.034659555 61:0.3815865 62:0.053151127 63:0.030104031 73:0.10089433 77:0.070013772 80:0.060455084 81:0.028265992 83:0.036086752 85:0.028450338 94:0.083608754 96:0.028763637 100:0.028687739 106:0.064991997 113:0.099407239 116:0.099407239 118:0.060798974 138:0.0778589 142:0.013242443 144:0.027600419 149:0.10337822 167:0.064866014 180:0.035775244 189:0.069480864 194:0.036782007 199:0.10850313 212:0.052562464 214:0.039774112 223:0.063057586 229:0.024311962 240:0.041793023 241:0.061309908 262:0.043448669 263:0.1329495 279:0.15768739 280:0.097267243 281:0.053588904 284:0.056385989 286:0.052025791 296:0.04186379 322:0.04023402 333:0.046834963 339:0.036109596 342:0.08673711 347:0.038137331 364:0.04301415 368:0.056588171 373:0.066282646 390:0.04240746 394:0.086498642 434:0.080343462 436:0.12301878 441:0.032736347 442:0.15802373 452:0.06553076 454:0.092642523 455:0.033896803 473:0.040874259 480:0.10243804 485:0.032127239 495:0.051162977 506:0.025972068 598:0.14719014 626:0.043815551 644:0.088471975 646:0.24146366 671:0.028351688 673:0.046940237 687:0.05223791 696:0.051236821 712:0.085263193 714:0.04804379 726:0.085566484 789:0.047702572 791:0.12361901 813:0.064866014 829:0.034439756 876:0.089608321 913:0.048453787 953:0.050728682 966:0.046371709 974:0.17888821 987:0.037901191 1003:0.04906338 1009:0.16550593 1023:0.06553076 1036:0.052480547 1141:0.12361901 1168:0.060365915 1199:0.13446338 1212:0.073063605 1251:0.12197481 1272:0.058664982 1293:0.13663288 1302:0.066232115 1338:0.058664982 1370:0.076323703 1432:0.05520107 1435:0.069816768 1436:0.062329498 1471:0.053768317 1472:0.047207292 1779:0.1264926 1795:0.11869265 1912:0.14094029 2373:0.07436012 2739:0.07436012 2855:0.15373166 2957:0.14696257 3265:0.079988219 3420:0.099147269 3829:0.1926097 4672:0.10281178 4842:0.09630485 6560:0.088817579 
1 6:0.036337014 13:0.13416831 26:0.069900717 27:0.011756074 33:0.067025737 37:0.019103078 41:0.018590964 57:0.1808558 61:0.18963267 67:0.045676581 75:0.0081825699 96:0.025015086 100:0.024949079 125:0.043283367 132:0.048974409 140:0.028530515 142:0.0073287798 144:0.024003461 149:0.4495285 158:0.057957907 161:0.15760484 176:0.041855705 194:0.031988481 204:0.024237549 218:0.022901931 220:0.064778124 233:0.33422517 240:0.072692897 252:0.029137895 253:0.13235277 273:0.29234943 275:0.10860079 278:0.10456705 279:0.091424777 296:0.036407993 297:0.19720857 299:0.033423461 341:0.033734192 373:0.11528904 377:0.031074722 394:0.075225917 398:0.0314037 402:0.030773773 419:0.049115851 422:0.03681659 429:0.046075635 434:0.069872895 450:0.24071028 451:0.045856261 456:0.043752347 457:0.02784021 465:0.034331803 507:0.021588015 541:0.041633231 550:0.032894193 572:0.043752347 641:0.031947145 644:0.03847104 687:0.090860262 714:0.0417826 742:0.041437155 751:0.050904811 763:0.046761091 796:0.035490464 804:0.076067386 827:0.034486382 838:0.05317872 887:0.05101961 914:0.10346914 941:0.11520115 959:0.044886315 1021:0.043226116 1035:0.049311927 1045:0.041947449 1106:0.051734569 1117:0.048184376 1218:0.049115851 1302:0.057600575 1304:0.051983524 1431:0.047161063 1447:0.052498873 1519:0.065072199 1568:0.059916898 1613:0.092598881 1653:0.06219733 1952:0.05660188 1964:0.077242644 1981:0.058026705 2261:0.061286295 2883:0.15215092 3251:0.057600575 3275:0.065490287 3481:0.076075458 3830:0.17245228 3831:0.086226142 3832:0.086226142 3833:0.086226142 4128:0.083754154 4321:0.066848478 4497:0.089413088 4669:0.089413088 4921:0.089413088 5950:0.086226142 6843:0.083754154 
1 6:0.019222816 8:0.048373711 10:0.040533773 12:0.06479258 13:0.031939655 17:0.28805505 27:0.027986115 31:0.036633541 34:0.038299058 37:0.022738072 42:0.028751962 50:0.045615616 55:0.096533014 57:0.035878268 58:0.032237037 59:0.029840866 61:0.056429143 63:0.031162561 67:0.027184033 79:0.065179935 80:0.031290415 94:0.057699092 98:0.093519225 110:0.046379583 116:0.051451318 124:0.11113151 132:0.029146707 137:0.078683942 142:0.016200457 145:0.040327508 150:0.041909862 151:0.15181076 162:0.026027714 166:0.035857421 170:0.047743185 173:0.071840125 181:0.040563504 190:0.041203874 196:0.044688424 215:0.030615536 219:0.040182126 248:0.05846177 264:0.07912166 293:0.045485275 299:0.039783384 307:0.046150255 314:0.07669858 317:0.057286073 323:0.041110467 327:0.080831024 329:0.064521152 337:0.073480808 339:0.074758592 360:0.1183494 383:0.057567463 386:0.038274013 404:0.040356777 447:0.33800796 459:0.043898609 478:0.037686786 489:0.054755438 557:0.045228398 590:0.080768169 603:0.051451318 648:0.070145215 658:0.044446473 660:0.061875113 673:0.048590769 716:0.092029099 719:0.051726036 728:0.066281894 752:0.21989908 792:0.052735291 806:0.051587961 844:0.052660583 856:0.036067393 908:0.051115779 946:0.068314521 998:0.053192654 1001:0.056330371 1027:0.050219299 1045:0.024964671 1052:0.073660975 1054:0.062806275 1076:0.065869799 1094:0.049496599 1138:0.047388838 1269:0.049092621 1271:0.061288974 1274:0.06692524 1368:0.093493703 1378:0.058932748 1433:0.046333397 1461:0.082087868 1501:0.07846915 1582:0.081411515 1695:0.082800797 1699:0.082087868 1822:0.068314521 1833:0.10642689 1837:0.61580115 1909:0.09969116 2060:0.090551337 2187:0.067146858 
1 4:0.03050375 6:0.0070520591 11:0.063379217 13:0.23434687 20:0.039780282 37:0.066733294 41:0.064944314 61:0.49683666 63:0.076215065 68:0.043292387 74:0.057811584 75:0.071460977 77:0.05317664 83:0.018272331 85:0.043217023 118:0.046177846 137:0.057731792 142:0.025601823 143:0.062139312 144:0.041925968 148:0.061989894 149:0.078517498 162:0.038193983 173:0.052710363 181:0.059524314 203:0.053461897 250:0.098533662 276:0.0547832 283:0.052864544 296:0.19077753 331:0.055128121 356:0.067260998 433:0.057028094 450:0.10510996 452:0.099543434 504:0.074912102 555:0.081268513 557:0.066369742 598:0.07452893 605:0.51263091 606:0.090797718 829:0.05231515 850:0.2585787 861:0.094150451 944:0.07716698 953:0.077058579 1106:0.090362878 1318:0.093381493 1393:0.080738354 1418:0.08952146 1467:0.17331339 1545:0.090149069 2115:0.12636763 2144:0.098533662 2383:0.11227653 2553:0.12636763 2897:0.13977972 3127:0.13719595 
1 6:0.026145992 9:0.24001407 10:0.088211483 13:0.13901713 20:0.029497623 27:0.015226171 42:0.093857037 47:0.024750208 57:0.039039979 58:0.03507787 61:0.42981304 72:0.097627599 83:0.0812951 84:0.092069759 98:0.033920148 105:0.055548349 127:0.052006408 142:0.039324211 151:0.24778323 173:0.078170911 194:0.041430675 200:0.15155141 215:0.033313477 225:0.099653444 243:0.04930664 264:0.04304706 266:0.10634711 283:0.039199783 293:0.049493587 307:0.10043433 309:0.076966709 342:0.048849659 347:0.042957291 355:0.062944038 362:0.15390113 364:0.096900926 377:0.040247197 396:0.053112885 415:0.045495887 464:0.073309329 466:0.096639656 473:0.046040123 513:0.039131077 544:0.08482137 550:0.04260373 664:0.059113264 687:0.058839961 713:0.052289415 827:0.044665894 870:0.08596982 913:0.054577584 1056:0.051349134 1158:0.090097473 1169:0.058930485 1175:0.055405581 1409:0.068695258 1463:0.076950564 1474:0.080556415 1608:0.056666938 1649:0.059391874 2200:0.075438855 2225:0.080972327 2817:0.21172065 2871:0.09091758 3035:0.081842167 4873:0.52930163 5841:0.12162318 5984:0.11580558 6372:0.11167793 7094:0.11580558 
1 6:0.0079119582 15:0.027107083 42:0.047336316 61:0.18580629 83:0.041000768 85:0.14546019 106:0.05538158 142:0.032826976 218:0.08975928 234:0.11351508 317:0.047156985 339:0.12308017 433:0.063981866 450:0.58963317 464:0.11091955 485:0.054753119 606:0.10186922 856:0.059380209 1045:0.041101041 1635:0.24766007 1793:0.1252311 1931:0.10313911 2010:0.11595173 2817:0.48051102 3228:0.16412835 4155:0.14177638 5840:0.36804017 
1 6:0.029706578 9:0.2840619 13:0.14807683 27:0.021624608 35:0.16118064 41:0.034196986 42:0.13329823 51:0.050439441 61:0.26161361 63:0.016052679 70:0.085444246 75:0.015051357 77:0.1680037 83:0.11545743 111:0.04644452 127:0.14772173 132:0.045042774 137:0.060798342 142:0.036590905 162:0.040222739 168:0.11031493 176:0.038495555 212:0.084085252 215:0.047312674 223:0.10087451 225:0.070765217 284:0.045100912 286:0.041613362 299:0.061480493 307:0.071319737 334:0.30444851 355:0.044697387 363:0.069377567 364:0.068810618 391:0.076856637 396:0.075432312 423:0.056268044 429:0.084753422 433:0.060057265 475:0.12035784 496:0.062276239 506:0.12464415 507:0.079419769 557:0.069895115 567:0.080590318 575:0.077512517 607:0.072851494 612:0.086452519 622:0.081964594 643:0.060424435 677:0.22236829 706:0.075605002 771:0.078789588 966:0.074181775 1150:0.08103819 1166:0.12296385 1171:0.12296385 1176:0.083824001 1233:0.15406084 1551:0.0795119 1940:0.13307992 2137:0.1048309 2699:0.11327597 3114:0.12581183 5837:0.34546486 5838:0.34546486 
1 6:0.026346777 13:0.11673725 27:0.012785916 41:0.020219548 57:0.065566304 58:0.058912078 61:0.2578058 67:0.024838943 85:0.05382018 91:0.07017416 98:0.028483862 111:0.02746111 118:0.086261147 132:0.026632304 135:0.040006982 138:0.036821882 142:0.0011386838 144:0.052212368 149:0.29334454 161:0.042852788 179:0.023936904 199:0.061577384 203:0.0332893 214:0.075241631 229:0.022995758 242:0.030768941 262:0.04109644 273:0.19077568 275:0.059057153 277:0.039766348 278:0.03790907 284:0.080000036 306:0.03445754 330:0.043671488 351:0.031162395 399:0.041404404 411:0.032898082 416:0.042721587 430:0.034176071 438:0.048963557 450:0.065449173 480:0.032297412 483:0.042634907 485:0.03038793 499:0.13082854 510:0.079396939 534:0.03346958 555:0.05060374 617:0.061560251 629:0.053631691 656:0.086692924 749:0.051116518 754:0.053524593 800:0.038723669 810:0.064617915 819:0.044102692 868:0.062646432 887:0.05548897 1168:0.057097817 1229:0.049562361 1253:0.05373975 1413:0.28876672 1545:0.056133426 1547:0.11791019 1586:0.34751572 1588:0.078685758 1627:0.05862498 1753:0.066655024 1846:0.057685663 1945:0.066976335 2047:0.060374199 2296:0.064093986 2387:0.059643766 2555:0.059294511 2825:0.059294511 5839:0.61278586 8003:0.091091086 
1 6:0.0078745594 13:0.15700762 17:0.042909361 26:0.034083264 27:0.022928828 37:0.018629144 58:0.026411579 61:0.32362402 75:0.095754791 83:0.040806962 96:0.024394478 114:0.027646789 132:0.023879694 142:0.021440873 144:0.023407952 149:0.2630256 166:0.058755469 173:0.058858112 175:0.038112788 176:0.040817294 190:0.033758046 199:0.018404329 203:0.02984865 215:0.075249284 220:0.063171023 223:0.16043767 240:0.035444718 252:0.085245011 264:0.032411912 297:0.23077915 299:0.032594248 314:0.031419305 369:0.035207926 388:0.040943326 399:0.037125008 402:0.060020593 411:0.029497866 433:0.031839716 450:0.58684604 451:0.044718598 458:0.041453004 466:0.036381997 496:0.033016118 507:0.021052431 520:0.0584304 555:0.045373537 582:0.033209037 594:0.037699399 673:0.039810077 682:0.12193483 739:0.040221241 758:0.041246239 856:0.029549763 861:0.052565733 883:0.045911885 912:0.037444337 944:0.043083585 997:0.074888675 1228:0.048481418 1256:0.067254016 1394:0.051068562 1435:0.059211693 1467:0.048381848 1507:0.053966666 1551:0.042153705 1579:0.049421417 1635:0.12324471 2617:0.070553109 2961:0.067254016 3079:0.057939262 3228:0.16335254 3856:0.08719481 3914:0.15941324 7797:0.39625326 
1 6:0.018771065 9:0.28718995 13:0.062378096 42:0.056152537 51:0.063743593 57:0.070070202 58:0.062958883 61:0.55103014 63:0.020286811 75:0.019021375 83:0.048637015 111:0.058694951 127:0.18668553 132:0.056923474 142:0.031639468 145:0.078759559 199:0.043871516 228:0.14196523 237:0.16130966 250:0.26227542 286:0.052589504 333:0.094684865 336:0.085808883 473:0.082634285 496:0.15740504 644:0.089430593 671:0.057317773 673:0.094897694 1511:0.11328765 2603:0.34018033 3867:0.17439217 4542:0.20785156 7441:0.38939336 
1 6:0.025954581 13:0.057499753 59:0.053721383 61:0.30476176 96:0.05360287 100:0.05346143 142:0.004486934 144:0.05143514 149:0.28897784 199:0.040440499 204:0.051936747 220:0.20821196 233:0.10231214 240:0.077883961 253:0.18907226 273:0.37587163 275:0.11635607 279:0.097953502 291:0.069635131 331:0.067631656 419:0.10524651 431:0.09646938 434:0.07486258 480:0.063633271 605:0.12578001 631:0.058063633 653:0.088379589 662:0.090186052 663:0.080969364 730:0.083164557 927:0.1111232 930:0.075747337 1005:0.091201142 1159:0.087973798 1280:0.11395252 1319:0.091316656 1447:0.22499146 1602:0.23864958 1787:0.12434089 1999:0.14324437 2073:0.12529054 2078:0.1200906 2749:0.16075366 2860:0.13467456 4273:0.35028447 4432:0.17148297 5243:0.17514224 
1 2:0.11080572 6:0.013571556 31:0.051727503 41:0.12498411 117:0.14011343 142:0.028154416 156:0.56515443 205:0.1073878 283:0.20347365 406:0.12725143 452:0.19156947 598:0.28685906 720:0.13512014 1016:0.24893237 2235:0.24319213 2583:0.5494874 
1 2:0.12461111 6:0.015262449 29:0.05543024 41:0.14055601 142:0.011873326 156:0.42371172 283:0.11441232 360:0.1879331 406:0.14310582 598:0.32259911 646:0.19845749 720:0.15195489 1016:0.27994711 1096:0.19998047 1813:0.56718183 3025:0.32595411 
1 6:0.0099607984 23:0.071650262 75:0.02018725 83:0.025809058 92:0.065755983 142:0.0077489403 156:0.13826441 183:0.087628827 263:0.1426272 293:0.094277479 294:0.095188584 295:0.16914835 325:0.17888855 355:0.059949234 424:0.20518353 882:0.074800909 952:0.092795073 1120:0.48161961 1159:0.10128723 1383:0.14481481 1458:0.53547018 2574:0.18508117 3746:0.21272884 3822:0.18270309 4178:0.37537211 
1 6:0.01751781 9:0.033501956 18:0.023443087 25:0.065736648 27:0.025503831 29:0.015905318 30:0.026324197 36:0.03346136 41:0.020165779 63:0.028398536 72:0.027254365 75:0.026627113 77:0.033023627 83:0.022694876 86:0.034021329 98:0.028408117 117:0.27128214 127:0.087110712 142:0.018170493 156:0.30395275 159:0.026346595 166:0.032676976 168:0.032526061 199:0.061413635 227:0.031129492 242:0.030687119 256:0.029803503 284:0.026595766 295:0.037184628 311:0.11223387 323:0.11239228 329:0.05879832 331:0.034235531 337:0.033481641 340:0.050139935 355:0.026357809 433:0.035415447 455:0.031976434 458:0.046108348 480:0.032211526 484:0.14521244 495:0.048264421 511:0.056803773 550:0.035680615 761:0.044532839 771:0.046461798 837:0.047523679 866:0.048979895 873:0.050637237 882:0.032887627 886:0.03772129 909:0.038558593 966:0.087489189 1005:0.046166539 1037:0.048979895 1070:0.067814307 1094:0.0451064 1150:0.047787786 1169:0.14806281 1358:0.058632574 1366:0.047458549 1377:0.04177026 1469:0.099169245 1482:0.051884503 1806:0.1204273 1985:0.061605534 2233:0.066477773 2276:0.080328854 2290:0.075456615 2303:0.060790549 2425:0.06931832 2691:0.073045272 2767:0.068924304 2931:0.066477773 4709:0.177316 5214:0.18169771 6216:0.096987148 6487:0.29096145 7397:0.66113121 
1 6:0.019947042 17:0.036231226 37:0.094378946 41:0.030616281 57:0.049639992 58:0.044602104 59:0.041286842 72:0.041378381 85:0.040747048 100:0.041087058 118:0.043538652 125:0.071280634 156:0.55376404 158:0.095447206 161:0.064887356 179:0.036245073 199:0.031079998 203:0.1512192 204:0.15966113 214:0.056965145 231:0.071280634 242:0.04659009 249:0.075879044 252:0.047985353 256:0.045248558 258:0.063051956 275:0.13413582 278:0.057401618 286:0.037256102 339:0.051716765 342:0.062113167 363:0.062113167 398:0.10343353 414:0.098255311 419:0.080885783 426:0.11971333 442:0.056581053 473:0.058540794 539:0.061773213 546:0.057445845 561:0.11784177 671:0.081211521 688:0.22143453 742:0.068240225 812:0.074474991 819:0.066779952 913:0.20818896 1059:0.06095005 1127:0.076623787 1265:0.085402227 1275:0.10045463 1366:0.072052969 1372:0.092902185 1500:0.075879044 1568:0.29602003 1609:0.18580437 1649:0.075517771 1748:0.10585961 1836:0.070906392 1957:0.25441203 2073:0.09629035 2133:0.11357407 2373:0.1064998 2971:0.13792941 3519:0.22714815 
1 6:0.0047819899 42:0.028610084 55:0.048028333 82:0.035868372 94:0.028707186 114:0.033578174 120:0.039840758 125:0.051265237 127:0.047558747 137:0.039147835 142:0.03224103 156:0.19913434 176:0.12393575 181:0.040363341 202:0.77191251 211:0.19023499 248:0.11634657 262:0.04475449 281:0.055199483 283:0.071694724 286:0.053589391 301:0.086686244 321:0.12698672 370:0.16965408 386:0.15234059 433:0.11601198 527:0.045609574 561:0.042376069 641:0.037838507 704:0.065954822 826:0.06233731 1096:0.1253147 1359:0.15925635 1418:0.24281743 1712:0.1860647 2076:0.178898 
1 6:0.013086882 10:0.055190739 14:0.066386031 16:0.072009503 22:0.27912216 37:0.030960133 41:0.060260313 52:0.053347685 59:0.04063129 116:0.070056056 132:0.039686123 299:0.054169009 317:0.039000326 318:0.5528762 319:0.059359541 333:0.066012754 355:0.039381811 408:0.038530595 430:0.1527824 431:0.072963037 531:0.36814038 572:0.070908913 639:0.075282906 725:0.095131652 748:0.38677542 853:0.06924188 902:0.090249351 990:0.088103036 1025:0.079759665 1103:0.085737249 1135:0.08887815 1273:0.087851927 1324:0.07809185 1393:0.074915234 1426:0.1553253 1430:0.098405055 1540:0.17016861 1755:0.20264584 2024:0.0637265 2442:0.11376769 2611:0.079289228 3232:0.13974569 3882:0.11485615 3959:0.13246597 
1 6:0.034195857 9:0.19619372 10:0.072106351 14:0.086732931 16:0.37631984 22:0.18233567 52:0.069698413 75:0.051977784 83:0.022150907 96:0.052967415 98:0.11090883 124:0.29654114 142:0.02216871 151:0.06751481 174:0.25066394 179:0.046602074 185:0.049782687 196:0.15899429 218:0.24246491 229:0.089539568 230:0.36860053 281:0.19736487 283:0.064085836 284:0.051916594 289:0.14875807 317:0.050953679 339:0.066494788 363:0.079861954 421:0.2485778 462:0.10505088 770:0.23021212 802:0.1515727 867:0.075148178 947:0.10399883 987:0.069793961 1045:0.088820321 1059:0.078366478 1101:0.1100709 2517:0.17306595 2525:0.14258893 3260:0.18257686 
1 6:0.024657329 9:0.094311876 13:0.081938734 16:0.2713499 27:0.035898115 105:0.26192809 142:0.012788009 151:0.097364712 153:0.21385934 318:0.1488126 404:0.10353221 409:0.062962924 633:0.38461317 667:0.1187467 675:0.21059012 730:0.11851179 818:0.37794315 1022:0.44184091 1436:0.33104813 1511:0.1488126 1958:0.17923998 2142:0.16030952 
1 8:0.27202838 13:0.17961187 16:0.29740308 19:0.32811073 133:0.38987179 142:0.042047482 832:0.47914759 1173:0.56061081 
1 6:0.0059034921 9:0.54192674 13:0.039235772 14:0.11978695 15:0.060677692 29:0.021440333 31:0.022500951 41:0.054366851 59:0.036657547 63:0.063801938 80:0.038438222 90:0.24745653 105:0.25084475 138:0.099007644 142:0.067357906 179:0.032181088 281:0.40887127 287:0.10959423 317:0.070372184 338:0.077352142 363:0.11029743 381:0.17024554 386:0.18806846 410:0.2253431 649:0.079036578 679:0.074266106 764:0.054599577 808:0.061615246 835:0.096394204 890:0.061998198 925:0.087237191 1049:0.09344094 1129:0.13767904 1359:0.19660615 1815:0.15352611 2664:0.11951079 2796:0.10171535 4004:0.19411089 4316:0.13073846 5473:0.10171535 
1 6:0.015343026 9:0.2347423 16:0.337695 27:0.044675211 100:0.094811018 105:0.16298478 142:0.02785069 153:0.133074 174:0.2249362 201:0.18414039 212:0.17371535 318:0.18519731 338:0.20103624 409:0.078357372 506:0.17167182 667:0.14778029 675:0.26207945 743:0.19477007 1139:0.51181534 1484:0.28910051 2071:0.27493555 
1 6:0.015207129 9:0.023266314 10:0.025652946 14:0.15428289 26:0.01316413 27:0.0088559027 34:0.14543186 37:0.014390433 72:0.037855019 80:0.019803025 90:0.042495791 91:0.048604694 98:0.05918629 114:0.021356283 119:0.095465932 132:0.018446319 142:0.0047321161 153:0.21103253 159:0.018297085 162:0.016472376 170:0.030215627 175:0.058881883 183:0.026756548 215:0.019375909 218:0.017252126 226:0.023582891 247:0.044756275 323:0.026017923 325:0.027310877 327:0.025578102 331:0.023775764 336:0.083420316 372:0.12009215 377:0.04681745 402:0.023182019 404:0.10216372 408:0.017909224 442:0.025881594 478:0.071553449 499:0.022653928 509:0.02823098 534:0.023182019 541:0.031362497 561:0.026951891 580:0.027519806 609:0.021537952 631:0.020412146 644:0.028980404 655:0.046059311 688:0.033763238 695:0.030023039 713:0.030412765 739:0.062139311 757:0.028896813 790:0.045950468 796:0.026735123 810:0.089512549 828:0.046167237 862:0.029265248 880:0.14310305 913:0.031743619 925:0.044943813 963:0.05160936 991:0.064616476 996:0.03386318 1045:0.015799599 1048:0.041311032 1056:0.059731751 1139:0.15218463 1184:0.040059764 1260:0.040605391 1271:0.038788463 1418:0.038608991 1531:0.041560159 1539:0.050002088 1568:0.045135664 1771:0.043390768 1816:0.066845147 2030:0.046853523 2067:0.037927378 2520:0.056512604 2722:0.041948374 2896:0.10223285 2901:0.10677149 2913:0.044756275 2979:0.047095428 3364:0.11461596 3380:0.051523583 3475:0.049334122 3668:0.12056895 3945:0.055786484 3949:0.71449986 4296:0.063092374 4372:0.13471055 5931:0.35369464 
1 6:0.031602336 10:0.059233404 14:0.14249748 16:0.077284126 18:0.037592539 22:0.33701353 33:0.019430783 37:0.016613966 41:0.2425287 52:0.057255349 59:0.021803745 83:0.0090981835 85:0.043037356 111:0.021959301 116:0.07518759 123:0.03562437 142:0.00091054957 164:0.041016023 168:0.026078844 171:0.060721584 175:0.033989998 199:0.01641347 239:0.029769808 242:0.073813235 264:0.028905805 275:0.047225107 284:0.085296136 286:0.039350191 296:0.031664067 318:0.21191922 324:0.037204467 333:0.070848121 345:0.025768263 347:0.028845526 348:0.034884384 355:0.063399733 372:0.034662038 382:0.030841419 390:0.032075277 394:0.032712027 402:0.02676398 408:0.041352922 426:0.063221084 430:0.19130249 433:0.05679101 499:0.052308582 502:0.024237457 549:0.037494978 557:0.033046911 580:0.031772019 607:0.034444708 609:0.024865881 612:0.08175074 667:0.033820669 703:0.15139765 708:0.062256422 712:0.032244805 748:0.10377658 787:0.040332434 794:0.082032046 800:0.030965417 807:0.045658322 826:0.045773707 836:0.039818469 842:0.050851316 851:0.039881235 853:0.074313778 856:0.026353265 876:0.067776088 986:0.031399365 1010:0.039095538 1020:0.044887145 1021:0.037593795 1025:0.04280099 1045:0.018240869 1049:0.055578253 1083:0.037643586 1096:0.046008708 1103:0.092017416 1109:0.048584168 1114:0.04297304 1133:0.04094544 1135:0.095388384 1160:0.044472692 1161:0.12584228 1164:0.037252281 1216:0.037593795 1280:0.046249584 1283:0.043508431 1287:0.31460569 1324:0.083811999 1350:0.0497384 1367:0.069599307 1426:0.04167568 1491:0.040332434 1565:0.052806562 1692:0.052109785 1698:0.050851316 1739:0.056593355 1831:0.047553539 2082:0.06105053 2271:0.05997892 2275:0.055262337 2319:0.057334841 2442:0.18315159 2478:0.05856646 2655:0.063635136 2723:0.045773707 2760:0.055262337 3232:0.07499096 3821:0.071084481 3943:0.069599307 3959:0.071084481 4370:0.058138186 4604:0.05856646 5664:0.53008379 
1 6:0.012557146 8:0.021066485 10:0.088261177 14:0.042465888 16:0.069094674 17:0.011404217 22:0.044637291 27:0.10359629 34:0.016679029 37:0.0099023055 42:0.012521322 52:0.017062752 53:0.12894272 57:0.078123944 58:0.084234316 59:0.090968734 62:0.047921858 70:0.12039263 72:0.013024346 78:0.032156747 83:0.0054227266 85:0.025651254 90:0.029242088 91:0.016722865 98:0.040727109 104:0.060617108 109:0.20728402 116:0.044813533 119:0.19707527 132:0.012693231 142:0.029306258 145:0.035124816 146:0.018793086 148:0.0183969 149:0.02330184 151:0.033056376 154:0.01512892 162:0.011334926 168:0.093261544 177:0.043686665 179:0.034225728 180:0.01612775 181:0.088325917 183:0.018411643 186:0.023752428 194:0.016581606 199:0.019565611 203:0.047598074 215:0.013332898 218:0.011871486 220:0.016789252 234:0.030026816 239:0.035486981 242:0.02932959 244:0.030797566 257:0.025359909 258:0.039692734 275:0.014073625 277:0.018953052 278:0.054203563 283:0.015688746 284:0.012709615 286:0.035180428 297:0.020445077 299:0.017325445 304:0.015847104 306:0.016422819 325:0.018793086 348:0.020791895 351:0.029704639 367:0.03572598 376:0.42705618 377:0.016107948 382:0.018382195 384:0.022679545 411:0.015679566 414:0.030927049 430:0.016288669 433:0.033848748 439:0.022556708 465:0.017796295 471:0.021816561 473:0.018426424 478:0.016412388 484:0.046262858 496:0.01754969 506:0.023416808 507:0.011190402 513:0.015661249 525:0.033730941 530:0.034409095 538:0.018338303 539:0.019443867 571:0.016517564 572:0.022679545 594:0.020039084 604:0.030926614 613:0.019356195 631:0.12641355 639:0.024078525 647:0.018904593 656:0.041318743 688:0.27879681 690:0.05231012 700:0.025877595 706:0.021305787 722:0.026881385 754:0.025510374 770:0.028178922 771:0.022203216 780:0.021232944 793:0.025117577 817:0.038387643 826:0.054564364 829:0.015525702 847:0.022318646 855:0.067461882 856:0.015707152 906:0.024488873 944:0.022901043 954:0.028598263 960:0.024118265 962:0.028343003 1067:0.044521282 1083:0.022436443 1089:0.068345768 1113:0.025409627 1123:0.023770133 1227:0.022868872 1281:0.027078288 1308:0.024446493 1322:0.047026482 1323:0.53969506 1361:0.031473926 1389:0.026691011 1405:0.02964523 1431:0.024446493 1472:0.042562807 1507:0.028685936 1511:0.025261746 1525:0.029340251 1540:0.16328046 1598:0.021897252 1620:0.025310618 1649:0.023770133 1749:0.065510619 1811:0.033730941 2013:0.032937624 2066:0.0280194 2075:0.034172884 2433:0.02851191 2604:0.031193752 2656:0.03943461 2663:0.033947662 2724:0.11378401 2774:0.033730941 2866:0.028685936 2915:0.033522103 2993:0.037928004 3762:0.038387643 4463:0.040715994 4480:0.043414952 5036:0.040039635 5662:0.040715994 5687:0.044696337 6652:0.29206007 
1 6:0.0098101896 9:0.2251381 10:0.082744172 16:0.43183816 22:0.10461779 37:0.092833349 52:0.079980992 83:0.025418821 123:0.099528605 140:0.069323469 142:0.022895325 212:0.222144 218:0.22258853 229:0.15412396 281:0.11324102 291:0.078961069 363:0.091643956 404:0.08238286 486:0.29243902 654:0.10251585 844:0.1074994 911:0.66476205 1225:0.087506682 
1 8:0.27202838 13:0.17961187 16:0.29740308 19:0.32811073 133:0.38987179 142:0.042047482 832:0.47914759 1173:0.56061081 
1 10:0.025289584 16:0.19797783 22:0.095924838 52:0.024445058 57:0.022384951 63:0.032404592 67:0.016960496 70:0.034496248 75:0.018229969 83:0.0077689028 86:0.069877022 98:0.058347945 109:0.098988913 115:0.040370708 133:0.043255532 142:0.032655616 154:0.065023623 171:0.15554976 181:0.050616269 200:0.028965784 218:0.017007758 225:0.028569911 232:0.079840634 239:0.050840643 289:0.026086674 317:0.035741578 331:0.023438992 351:0.063834803 354:0.044689922 377:0.023077152 413:0.02592496 425:0.81875972 453:0.029082479 457:0.020675092 458:0.03156759 474:0.080741416 515:0.021662609 531:0.03373797 541:0.092754786 558:0.033284998 571:0.02366399 574:0.022450296 599:0.056226977 632:0.04745805 655:0.022703452 660:0.23162846 689:0.074942418 711:0.16301337 727:0.032101193 903:0.033383525 1049:0.04745805 1072:0.11666404 1136:0.05372811 1148:0.05433779 1161:0.05372811 1267:0.040255644 1269:0.030629569 1408:0.12139751 1433:0.028908051 1451:0.056496239 1781:0.038062113 1817:0.04262238 1924:0.041354195 1948:0.045091314 2056:0.039085987 2161:0.039810838 2358:0.051215762 2584:0.066401219 2589:0.048635328 2722:0.041354195 3287:0.10158755 4004:0.049293833 4559:0.058332021 5556:0.062198701 
1 6:0.024133489 9:0.026373782 14:0.20986684 16:0.037940731 17:0.018786586 26:0.014922342 27:0.020077409 33:0.019078125 34:0.19233184 37:0.016312431 58:0.023127046 59:0.021408019 67:0.01950199 72:0.021455484 80:0.022447934 83:0.0089330564 98:0.06709126 100:0.021304427 111:0.021560752 114:0.024208646 118:0.022575626 119:0.14428859 132:0.020910025 142:0.0053641415 151:0.02722749 153:0.20931594 159:0.020740859 175:0.20023859 183:0.030330175 226:0.10693056 235:0.052333371 240:0.031036828 247:0.05073396 299:0.028540841 322:0.029879063 323:0.11797159 325:0.03095854 327:0.028994334 336:0.094562003 364:0.031943676 372:0.13613176 377:0.10614086 390:0.031493129 402:0.026278229 404:0.11580879 405:0.032787775 406:0.032326235 478:0.081110187 495:0.037995254 496:0.028910247 523:0.040411751 541:0.035551298 561:0.061103217 580:0.062390748 631:0.023138409 644:0.032851051 655:0.052211031 663:0.032266363 695:0.034032941 713:0.034474719 720:0.034325156 726:0.031772196 739:0.070438689 785:0.048497793 810:0.05073396 842:0.049928393 880:0.16221602 883:0.040202302 912:0.032787775 917:0.041940829 925:0.10189309 963:0.1170047 997:0.032787775 1011:0.041377106 1027:0.036027631 1086:0.043468452 1139:0.17251053 1140:0.035017638 1198:0.041069446 1260:0.046028681 1322:0.077468449 1418:0.08753128 1539:0.056680409 1645:0.039408015 1771:0.049186075 1816:0.11365956 1904:0.048171564 1952:0.048333273 2067:0.04299299 2206:0.044497695 2387:0.046828568 2520:0.064060474 2896:0.11588715 2901:0.12103197 2913:0.10146792 2979:0.053385532 2999:0.05750351 3086:0.061779154 3364:0.12992416 3475:0.055923229 3668:0.13667224 3945:0.063237373 3949:0.58903932 4296:0.071519044 4372:0.076351301 5306:0.061779154 6855:0.26023153 
1 6:0.028690412 8:0.032088296 13:0.063560709 16:0.035081479 17:0.01737081 27:0.018564355 35:0.034592703 37:0.04524933 41:0.029357526 42:0.019072374 52:0.025989843 57:0.047599098 58:0.021384169 67:0.072129202 83:0.041299261 98:0.041356797 109:0.10524444 111:0.059807736 116:0.034129801 118:0.020874304 124:0.073718154 132:0.019334225 138:0.026731542 142:0.0082664907 146:0.057250947 148:0.028022006 154:0.023044246 166:0.02378572 171:0.055126534 179:0.017377449 196:0.059287384 200:0.030796253 218:0.018082549 219:0.026654477 242:0.04467459 250:0.044541307 252:0.092024976 271:0.070365198 277:0.11547653 282:0.09031074 284:0.01935918 304:0.048276355 306:0.10006041 307:0.061226772 322:0.027627346 323:0.054540568 333:0.064319983 373:0.02275703 376:0.081311056 382:0.027999607 395:0.053169988 403:0.073841785 422:0.029069068 426:0.086093583 430:0.049621531 463:0.078344851 466:0.02945673 472:0.029043825 479:0.16149943 480:0.023446917 496:0.026731542 515:0.02303156 534:0.024297875 581:0.047724842 593:0.12281737 604:0.047107163 663:0.029834738 695:0.031468184 712:0.029273681 713:0.03187667 715:0.078668816 730:0.030643599 783:0.051378691 787:0.036616095 822:0.042678919 886:0.054915 966:0.031841891 967:0.040847773 987:0.026025472 996:0.035493169 1000:0.038703734 1023:0.089995531 1059:0.029222078 1102:0.038186895 1113:0.038703734 1176:0.035980734 1245:0.031173871 1341:0.036616095 1407:0.038857191 1468:0.044690828 1476:0.041044339 1530:0.04329952 1598:0.033353714 1614:0.040283267 1824:0.04515537 1849:0.039416538 1854:0.15950996 1899:0.04581582 1943:0.038258886 1985:0.044842951 2024:0.031046178 2246:0.040374858 2415:0.046530242 2675:0.052781177 2952:0.049892617 3302:0.058471741 3388:0.055425169 3500:0.064534565 3508:0.81697308 3673:0.0544523 3708:0.049892617 5039:0.07059739 5352:0.066129297 5915:0.064534565 
1 8:0.13059649 13:0.215572 16:0.14277848 19:0.2362811 22:0.069179477 75:0.15776599 83:0.050425289 85:0.11926398 133:0.65509932 141:0.059257438 142:0.030279489 175:0.18838436 181:0.05475548 218:0.036797178 234:0.093071928 283:0.097258525 309:0.047740498 446:0.08004376 507:0.034686072 518:0.33943732 534:0.049445088 577:0.09468696 599:0.12165002 622:0.071595015 684:0.060712356 791:0.086368597 832:0.23003113 1062:0.22557548 1417:0.22557548 
1 6:0.026743634 13:0.044435865 16:0.44146401 17:0.036432269 34:0.053283349 58:0.044849596 65:0.047832288 70:0.15384402 100:0.041315045 105:0.071022585 111:0.041812128 147:0.086083403 203:0.050686098 250:0.093417689 258:0.063401824 317:0.039849463 331:0.05226581 351:0.047447684 377:0.051458955 432:0.062806158 448:0.060548014 471:0.069695868 480:0.049175854 506:0.037404034 546:0.057764605 559:0.47867268 569:0.093731285 574:0.05006115 620:0.095042193 631:0.044871632 634:0.075116134 647:0.24157281 663:0.18771961 784:0.19696076 792:0.073367677 858:0.13415277 882:0.050208028 908:0.071114539 912:0.063584362 991:0.071022585 1098:0.075001835 1283:0.082843259 1880:0.093417689 1995:0.086505144 2073:0.096824654 2740:0.096824654 3924:0.11519614 4102:0.15550404 4499:0.29613163 5507:0.29613163 5769:0.14278831 
1 6:0.0075848679 8:0.38174241 9:0.34813654 10:0.063974667 13:0.050410526 16:0.16694047 19:0.18417752 22:0.080886522 52:0.12367656 85:0.046482227 106:0.053092036 123:0.46171054 142:0.051138534 174:0.11119785 192:0.061254353 215:0.048320662 218:0.043024259 229:0.039720939 255:0.070596307 281:0.26266102 317:0.045207455 326:0.35378293 339:0.058995939 363:0.070855644 453:0.073569494 560:0.090353463 844:0.083114475 863:0.32063945 867:0.066673456 2211:0.11684578 2824:0.22142113 
1 6:0.022675447 9:0.17346274 13:0.075352742 16:0.3743094 89:0.36101802 105:0.12043754 142:0.026460331 151:0.089538826 153:0.19666996 318:0.13685148 404:0.095210603 410:0.43277397 506:0.063428415 556:0.14018775 672:0.15841436 867:0.099662276 914:0.29055608 1045:0.058897205 1046:0.12737924 1628:0.47038718 2451:0.17945438 
1 6:0.013849614 8:0.069704379 10:0.058407376 12:0.093363245 16:0.15241275 17:0.075468108 18:0.037068299 19:0.25222465 27:0.10081689 36:0.052909231 37:0.032764557 76:0.057611211 82:0.051941046 83:0.071770452 94:0.083141843 106:0.096943576 142:0.03232266 162:0.11251436 185:0.040324826 207:0.081892112 242:0.048522591 286:0.11640432 309:0.050961886 373:0.049434369 381:0.46596278 402:0.052781496 430:0.053895632 442:0.29463984 518:0.24156103 600:0.24079665 679:0.087114278 791:0.092196495 834:0.069782091 981:0.082188999 982:0.46538475 1062:0.24079665 1102:0.082952171 1615:0.10276619 1788:0.085268127 1836:0.14769501 2184:0.11232537 4258:0.13048048 
1 8:0.059060092 9:0.022442027 12:0.039553051 13:0.03899554 14:0.08929014 19:0.1068542 21:0.053241184 35:0.031834788 42:0.017551822 89:0.046707301 90:0.040990236 105:0.031163611 106:0.041069848 115:0.039499938 137:0.024016562 142:0.092810791 162:0.015888787 181:0.04952451 235:0.13359482 299:0.024286025 317:0.22730926 331:0.022933428 356:0.22384587 373:0.041885437 417:0.17163697 421:0.085302268 435:0.1105553 442:0.024964652 491:0.28009235 506:0.065649245 539:0.027255533 831:0.051494375 877:0.055277652 1004:0.059389525 1045:0.030479691 1071:0.39288024 1077:0.12993798 1396:0.1253066 1428:0.049305454 1644:0.59049784 2136:0.38157319 
1 6:0.015565224 10:0.13128508 22:0.082995303 35:0.084453102 52:0.063450458 85:0.047694059 99:0.44252864 139:0.063668581 142:0.0020181446 200:0.22555384 283:0.058341007 302:0.39518148 320:0.073872347 336:0.071153901 339:0.060534014 341:0.065026288 364:0.072108788 482:0.1231838 489:0.08867386 502:0.053719968 507:0.041613224 511:0.10094452 531:0.08757147 844:0.085281341 848:0.086017761 884:0.080348081 890:0.081732626 1045:0.040429113 1135:0.10570954 1398:0.27597062 1439:0.0917079 1488:0.10838228 1527:0.10119723 1554:0.14460838 1672:0.12543367 1735:0.12794882 2029:0.15755184 2214:0.15140866 2226:0.12885764 2554:0.11813593 2594:0.26587489 2726:0.12980687 2862:0.13184213 3089:0.12623958 3927:0.14460838 5354:0.18101169 7691:0.17235336 
1 6:0.0056637755 10:0.047771188 22:0.060399615 33:0.094024472 52:0.046175905 94:0.034000711 99:0.48307359 106:0.039644906 116:0.12127618 140:0.080045867 142:0.0058747979 162:0.12270013 171:0.097942784 184:0.066740185 192:0.045739874 199:0.052949243 284:0.034395269 289:0.14783059 375:0.040151014 415:0.049276864 558:0.44011982 574:0.042407866 594:0.054230573 658:0.052382512 975:0.070178289 1005:0.17911617 1202:0.070178289 1255:0.08913712 1343:0.098473367 2153:0.27052059 2284:0.084052111 2468:0.084052111 2718:0.55093629 3777:0.11465794 
1 19:0.25830462 22:0.22688287 27:0.041298846 35:0.076956011 41:0.16327418 59:0.044035885 63:0.030657532 99:0.40324438 100:0.0438228 104:0.41080699 109:0.078043357 133:0.10230864 142:0.014711915 148:0.062338632 166:0.10582892 168:0.10534016 242:0.049692246 252:0.10236082 256:0.096522777 271:0.078268312 277:0.19266953 284:0.043067038 286:0.039736763 299:0.058707964 333:0.071544125 365:0.075139919 403:0.082135373 430:0.055194806 452:0.10010344 457:0.04890104 544:0.11503301 577:0.20702527 598:0.074948209 655:0.053698546 774:0.079554321 866:0.079314091 1035:0.17323178 1050:0.083715892 1164:0.15047297 1169:0.15984064 1243:0.094418925 1269:0.072445518 1416:0.085600437 1738:0.095761417 2197:0.24437671 2616:0.094161194 2652:0.11359099 2718:0.27593555 3035:0.11099268 
1 6:0.028854131 27:0.33606524 41:0.13286274 51:0.19596821 82:0.10821339 83:0.037381439 106:0.10098558 113:0.30892104 118:0.094470396 125:0.1546651 142:0.097269854 161:0.14079293 162:0.3125482 207:0.17061311 234:0.20698915 286:0.080838487 331:0.11278082 351:0.10238412 399:0.13603426 829:0.32107818 1045:0.29978288 1290:0.43593396 3482:0.2200509 
1 6:0.021870886 12:0.049145457 27:0.2335035 41:0.10070744 51:0.1485402 52:0.17831002 82:0.21872988 83:0.037779231 106:0.35721074 108:0.20245919 110:0.070358235 114:0.10238198 137:0.11936423 142:0.052933432 161:0.14229117 162:0.078968541 165:0.28313541 168:0.1082896 181:0.12307039 195:0.20305236 207:0.34485736 231:0.15631096 286:0.040849362 296:0.065740822 331:0.11398097 332:0.093639063 351:0.051736816 368:0.08886326 386:0.058062015 456:0.079002302 457:0.050270232 508:0.22625342 509:0.067669635 517:0.08129088 518:0.12715526 856:0.10942911 986:0.065191248 1047:0.08215803 1182:0.10914286 1205:0.20174055 1562:0.23499784 1575:0.11825385 2724:0.13211904 3018:0.13736718 
1 27:0.2374092 59:0.25314326 83:0.10563065 142:0.042286219 356:0.3888296 424:0.41988494 508:0.31630204 518:0.35552584 554:0.51751527 1045:0.21177797 
1 6:0.06298156 9:0.12044916 11:0.035377273 13:0.052323481 14:0.079871886 27:0.114617 34:0.062741442 42:0.047101409 51:0.053468876 59:0.04888525 63:0.085084079 72:0.14698091 75:0.17550889 79:0.10677764 83:0.1223919 86:0.061158225 91:0.062906338 92:0.051971416 94:0.047261271 113:0.1685749 120:0.065590714 127:0.078297009 132:0.04774808 139:0.064405539 141:0.071914615 142:0.081660178 145:0.066064445 148:0.06920355 151:0.062174022 173:0.11768835 186:0.04467471 188:0.087013409 203:0.059683165 218:0.044656924 234:0.05647588 304:0.059611991 305:0.11272795 307:0.075603259 317:0.093845934 330:0.078297009 387:0.05557319 457:0.05428617 507:0.084189786 608:0.085905411 655:0.059611991 671:0.048078823 684:0.073680298 716:0.075380946 863:0.16640346 867:0.1384071 933:0.091488962 1193:0.095962279 1207:0.089700252 1242:0.099938917 1592:0.26462852 1859:0.12390134 2254:0.12688556 2257:0.11357517 2410:0.10999985 3603:0.15937549 4179:0.14834103 4381:0.59423916 5098:0.18310688 5138:0.16813404 
1 6:0.014377985 18:0.076964951 27:0.12559573 41:0.13241074 48:0.087959321 51:0.097650764 82:0.10784525 83:0.037254267 106:0.20128406 113:0.30787009 114:0.10095933 125:0.15413893 142:0.022370525 161:0.2806279 234:0.10314249 286:0.080563474 355:0.086534145 399:0.13557147 451:0.48990423 518:0.12538836 622:0.15868346 882:0.1079719 964:0.17223369 1105:0.18047496 1156:0.20156826 2137:0.20295264 2739:0.23029769 3280:0.26056634 4023:0.28498779 
1 1:0.20373373 27:0.27780656 59:0.29621791 83:0.24720936 106:0.3339168 113:0.51073591 114:0.33496955 142:0.024740804 471:0.49728288 
1 6:0.015952648 8:0.053525894 12:0.035846751 27:0.061933715 41:0.19588299 51:0.10834539 59:0.06603831 62:0.060880119 72:0.033092363 85:0.032587455 91:0.084979176 104:0.077008215 113:0.056931291 115:0.07159723 138:0.089180782 142:0.017925934 161:0.15568101 166:0.03967652 171:0.091955551 190:0.045592413 246:0.054964226 266:0.054071959 286:0.029795571 293:0.050329817 402:0.040530836 411:0.079677532 413:0.045977776 574:0.039815477 584:0.074801697 608:0.05802413 626:0.050187006 627:0.090082486 631:0.035688063 777:0.22002432 814:0.059030762 851:0.060395344 856:0.079817712 913:0.055499713 936:0.062221522 962:0.072014127 1002:0.15851467 1015:0.066454985 1035:0.064946655 1053:0.079608926 1056:0.052216716 1208:0.090082486 1260:0.070993404 1309:0.062772168 1326:0.10345152 1332:0.1306856 1363:0.060205855 1383:0.15461812 1394:0.068971378 1437:0.072662695 1448:0.066746803 1489:0.062330002 1536:0.087422344 1611:0.10764892 1809:0.083224951 1886:0.36647895 2008:0.094279879 2086:0.079257333 2445:0.18323947 2461:0.090830875 2494:0.32602581 2544:0.21529783 2704:0.093338237 3055:0.0924537 3667:0.096367775 4055:0.091619737 4824:0.3532866 4979:0.1053998 5004:0.098805159 5064:0.1177622 5065:0.1177622 5307:0.11030906 5945:0.11030906 6303:0.11356481 
1 6:0.024923411 27:0.29028398 41:0.11476321 51:0.33854399 82:0.093471777 83:0.064578134 106:0.43614294 113:0.26683757 114:0.087503598 118:0.08160095 125:0.13359549 142:0.077556042 161:0.24322618 162:0.20247795 207:0.14737095 234:0.26818737 351:0.088436607 399:0.23500536 777:0.34375211 829:0.092446191 3026:0.23480932 3482:0.19007396 
1 6:0.03518464 11:0.059290527 13:0.058461012 18:0.094171197 20:0.02480933 25:0.033008126 26:0.019036103 27:0.15367385 34:0.070100997 37:0.062428227 41:0.020251552 42:0.026313196 47:0.02081646 48:0.026905866 51:0.1493519 65:0.031464718 72:0.027370288 77:0.033164089 78:0.033788237 79:0.089476974 83:0.12535274 94:0.052805005 101:0.085491444 111:0.027504576 113:0.094174345 118:0.028799228 135:0.080140613 139:0.21588087 141:0.080350181 142:0.036495558 144:0.078442518 145:0.073813786 148:0.038660554 154:0.063585977 157:0.044569821 159:0.026458657 161:0.042920617 168:0.032664407 173:0.032873291 186:0.074872563 188:0.04861003 200:0.042488043 214:0.037680364 215:0.0280187 218:0.074842754 234:0.031550243 236:0.12131961 239:0.037287432 242:0.030817644 243:0.041469941 286:0.024643551 305:0.18892637 309:0.032366887 330:0.043740614 331:0.034381148 342:0.041085592 348:0.043693567 353:0.098674418 357:0.081426216 364:0.040749843 368:0.16082794 369:0.078656986 387:0.06209191 400:0.07750748 404:0.11080104 413:0.038027655 414:0.064992301 423:0.033322095 439:0.047402269 441:0.031013073 442:0.037426301 449:0.050271937 456:0.047660408 499:0.032758906 502:0.030358024 505:0.094909135 507:0.023516306 510:0.039761306 513:0.065823324 517:0.049041059 521:0.086738551 527:0.041947925 528:0.046016443 550:0.035832378 555:0.050683838 557:0.041392086 576:0.043053472 613:0.081352968 622:0.048539665 638:0.053716582 655:0.033302231 666:0.11495798 688:0.04882362 695:0.043415073 705:0.20108775 709:0.038355031 714:0.045514718 716:0.042111555 747:0.048469708 754:0.053609314 796:0.038660554 811:0.049952248 813:0.061451403 827:0.037566786 862:0.042319263 865:0.065268814 876:0.084891252 883:0.051285191 886:0.037881733 904:0.053609314 908:0.093560188 910:0.070445731 946:0.12504005 951:0.057332717 969:0.049188225 976:0.12890993 981:0.10439967 986:0.078656986 993:0.048330999 1106:0.056355621 1146:0.0503532 1150:0.047991046 1199:0.063692551 1200:0.062745592 1218:0.053502992 1225:0.03923078 1269:0.044928542 1306:0.062975457 1323:0.35442299 1366:0.047660408 1472:0.044722254 1481:0.077198911 1629:0.064720195 1649:0.099904496 1707:0.050271937 1718:0.062520024 1728:0.071340031 1836:0.046901989 1970:0.18140929 2084:0.066760529 2150:0.13168713 2158:0.080670523 2186:0.069217465 2253:0.065268814 2335:0.064991387 2406:0.071340031 2459:0.063448754 2708:0.068462999 2822:0.077977732 2912:0.14362666 3073:0.077977732 3079:0.064720195 3349:0.067082349 3751:0.070884599 3792:0.08717488 3820:0.070445731 3923:0.085563486 4192:0.091235269 4262:0.085563486 4548:0.08717488 4659:0.16344107 4732:0.076467322 
1 6:0.019222532 12:0.25916649 27:0.027985701 29:0.10471873 31:0.036632999 39:0.19306317 42:0.2300123 57:0.071755476 86:0.074664136 137:0.078682778 140:0.13583556 142:0.012461706 165:0.18663782 243:0.090625598 286:0.053854346 317:0.057285226 409:0.049085073 414:0.071014884 439:0.20717941 527:0.091670153 537:0.10749261 674:0.12726983 720:0.095690988 782:0.10950926 884:0.099227197 922:0.13662702 1088:0.24690082 1315:0.58638887 1335:0.10331211 1595:0.12037723 1948:0.14454125 2241:0.13429173 2305:0.15394733 2359:0.1722267 2629:0.15913488 2884:0.16030715 5990:0.18698464 
1 6:0.015761774 11:0.035414087 12:0.26563383 29:0.028621846 39:0.15830476 58:0.052865606 83:0.020419877 98:0.051120812 108:0.14590704 140:0.0556901 142:0.022479917 225:0.075093495 284:0.04785946 297:0.076988201 350:0.23006267 411:0.059043141 451:0.089509067 537:0.08814002 572:0.085402336 727:0.084375159 893:0.24806054 922:0.11202917 977:0.10835532 1059:0.072242361 1210:0.12623119 1225:0.14059469 1258:0.13461612 1315:0.12020437 1331:0.17817835 1335:0.084712158 1487:0.11851855 1745:0.12868178 2056:0.10273408 2397:0.28910584 2719:0.13578526 2780:0.14849539 3462:0.14121961 3701:0.52358927 5264:0.336618 
1 6:0.012182553 9:0.046597074 12:0.041062612 27:0.017736336 42:0.036443391 47:0.028830492 75:0.012345006 83:0.015782882 84:0.035749416 92:0.040211422 98:0.039512175 110:0.23514628 141:0.11128382 142:0.0063182268 145:0.051115507 172:0.047768366 180:0.046939924 183:0.053587211 186:0.069131602 200:0.11769063 218:0.03455204 239:0.051642548 287:0.16962048 293:0.057653028 296:0.054928574 321:0.24263263 368:0.074248116 370:0.21610457 372:0.060129241 387:0.042998193 415:0.052996274 437:0.054789489 442:0.051834879 465:0.051796236 480:0.089604491 493:0.054379045 506:0.034077389 555:0.21058912 582:0.05137695 586:0.044776865 599:0.057113841 655:0.046123103 695:0.12025848 720:0.060645524 739:0.062225373 780:0.12359725 782:0.069403049 791:0.081098914 800:0.053716606 884:0.12577329 1128:0.36642029 1177:0.16450403 1474:0.09383683 1480:0.088557868 1483:0.085395 1818:0.098804899 1891:0.17380345 1943:0.073104877 2112:0.098174132 2135:0.085109295 2313:0.22345499 2320:0.10014268 2333:0.28151049 2389:0.097566307 2611:0.073810187 2940:0.099460409 3103:0.087875596 3494:0.10495081 4095:0.10915112 4239:0.12073593 4252:0.11172749 4562:0.13008899 5427:0.26979424 5432:0.13489712 6140:0.12073593 
1 55:0.29594486 75:0.11943591 111:0.18427388 142:0.045845858 176:0.15273546 195:0.4103504 487:0.44943519 583:0.46373995 972:0.50331967 
1 6:0.03203393 12:0.1439651 15:0.018291856 29:0.019390165 31:0.04069873 63:0.011540214 72:0.033225782 75:0.010820367 92:0.03524521 96:0.033079143 98:0.034632321 142:0.0027689549 158:0.038320834 160:0.096783318 169:0.038917105 171:0.046163145 179:0.058207736 209:0.033538589 259:0.064949217 260:0.13462976 276:0.041475385 318:0.064444022 351:0.037889036 359:0.0594442 387:0.037687808 408:0.03143826 414:0.039448252 508:0.041423712 530:0.043889692 531:0.06007534 565:0.056788048 665:0.066015084 684:0.04996742 727:0.057160822 733:0.18078233 769:0.15524149 779:0.072735358 890:0.11213961 916:0.064694442 1049:0.08450593 1059:0.048941333 1148:0.096756304 1149:0.051221078 1225:0.047623662 1273:0.071681003 1315:0.081433689 1527:0.13884563 1649:0.060638841 1816:0.058670748 1880:0.074598081 1936:0.071885891 2066:0.071478942 2277:0.71500227 2359:0.09567068 2401:0.072304468 2415:0.077929163 2436:0.10386861 2546:0.089730936 2780:0.10059973 2858:0.32116646 2862:0.090445674 2928:0.092826448 4447:0.089730936 4559:0.10386861 4826:0.11823698 6369:0.11402267 8129:0.10582474 
1 6:0.040146649 12:0.13531862 15:0.013754604 27:0.035069224 29:0.01458048 30:0.072394548 31:0.015301753 37:0.037990579 39:0.32257309 42:0.024019268 55:0.24192982 57:0.059945109 59:0.024928934 74:0.032911542 75:0.056954801 82:0.030112881 83:0.052011252 85:0.049206016 110:0.15498123 118:0.026288574 132:0.024349037 140:0.11347813 142:0.024985466 166:0.029955139 168:0.20871756 169:0.058527617 176:0.041619536 186:0.045563556 191:0.051816102 195:0.16772719 205:0.031766885 214:0.068790942 215:0.05115218 218:0.022772708 228:0.030362839 275:0.026997004 283:0.030095242 284:0.024380465 286:0.02249518 299:0.033234871 317:0.023928272 321:0.21322048 339:0.031226506 370:0.47477046 396:0.040776888 399:0.037854681 400:0.035375273 402:0.030600133 408:0.14184044 411:0.060155263 422:0.036608854 433:0.032465509 496:0.033665032 502:0.027711477 507:0.021466205 518:0.070022644 521:0.039588436 528:0.042004829 534:0.030600133 555:0.27759198 583:0.12636647 641:0.031766885 643:0.032663992 644:0.076507938 654:0.083905983 739:0.041011769 776:0.050063924 862:0.038629961 876:0.038745308 884:0.041447604 908:0.042701906 932:0.054530328 944:0.04393037 972:0.20572758 976:0.058835919 1045:0.020855381 1138:0.039588436 1202:0.099489222 1225:0.035810725 1229:0.045313232 1423:0.058599018 1576:0.089003816 1691:0.056282507 1883:0.057699292 1886:0.069171437 2331:0.076806806 2365:0.055547867 3041:0.071939793 3169:0.067473389 3513:0.065552797 3528:0.075646206 3818:0.078104246 3874:0.066002472 4126:0.066002472 4187:0.071179802 4585:0.12498909 5170:0.088908579 5171:0.088908579 5172:0.17781716 5173:0.088908579 7220:0.088908579 8332:0.093374984 
1 6:0.016919803 12:0.038020018 21:0.068236818 47:0.026694255 59:0.035020994 69:0.1716587 72:0.035098641 81:0.034339168 98:0.036584463 118:0.036931061 142:0.0014625171 144:0.067061182 179:0.030744384 259:0.1372205 261:0.077544178 331:0.044089107 336:0.051564095 339:0.043868033 355:0.033944041 367:0.048138053 374:0.07279298 423:0.042731018 454:0.056273757 480:0.082965116 502:0.038930002 523:0.13221772 532:0.065211508 534:0.042988083 537:0.063077154 597:0.1008668 650:0.095543881 653:0.057614694 676:0.056396574 700:0.069736198 745:0.30642406 747:0.062155753 757:0.10717087 773:0.35308239 815:0.17204783 830:0.19611771 917:0.06861025 936:0.065993802 945:0.26780798 991:0.059911487 1002:0.084062436 1035:0.06888415 1075:0.157606 1179:0.070331461 1185:0.088761907 1237:0.13832597 1284:0.079067533 1310:0.10479538 1382:0.073898804 1489:0.13221772 1607:0.072971883 1646:0.093381072 1716:0.090899777 1729:0.10221023 1759:0.085611223 1773:0.11178983 1806:0.077544178 2063:0.094788856 2173:0.07933667 2363:0.096337643 2549:0.091483807 2687:0.10790075 2706:0.087794408 2894:0.12044986 3169:0.18957771 3220:0.1141753 3552:0.098997017 4648:0.10344888 4978:0.09717433 5158:0.24089971 5549:0.10344888 6360:0.11699672 7452:0.24089971 
1 6:0.022459962 12:0.027528629 27:0.0059452748 31:0.0077823044 33:0.011298738 57:0.015243714 58:0.013696652 69:0.041430182 72:0.06353347 79:0.013846603 91:0.032630017 96:0.012650614 98:0.03973381 100:0.025234466 110:0.019705441 111:0.025538075 118:0.013370082 132:0.074301925 142:0.0015884169 144:0.036417048 162:0.011058477 172:0.016012104 181:0.017234345 185:0.011889981 199:0.019088423 215:0.01300772 218:0.023163901 224:0.019418077 240:0.018381104 243:0.07700991 252:0.014735598 258:0.038724663 260:0.02574355 261:0.11229268 274:0.022066169 275:0.013730381 278:0.03525439 280:0.042779372 291:0.032868656 293:0.019325473 299:0.016902893 322:0.017695434 331:0.031922991 341:0.017060035 348:0.020284799 351:0.043470253 374:0.052706207 382:0.035867738 394:0.019021602 398:0.03176292 408:0.012023083 416:0.019864949 431:0.022767379 442:0.017375212 448:0.018490804 458:0.021496912 478:0.016012104 480:0.015017851 511:0.026483397 514:0.021689641 515:0.044255441 523:0.095733055 541:0.042109465 550:0.016635231 570:0.023687865 576:0.019987634 594:0.019550348 641:0.016156291 650:0.10376871 651:0.13208936 663:0.019109278 667:0.019666263 676:0.081668577 700:0.025246463 745:0.083200588 757:0.058198299 773:0.22369505 779:0.027816529 784:0.020049998 800:0.018005973 812:0.022870178 815:0.31143073 819:0.041014288 827:0.017440432 830:0.03550006 834:0.020575606 844:0.022374069 846:0.088708064 880:0.024017511 883:0.023809221 913:0.021310593 936:0.04778322 945:0.25854404 947:0.024838838 971:0.025461965 1011:0.024504981 1021:0.021860285 1056:0.020049998 1058:0.022904868 1073:0.054672063 1179:0.025461965 1184:0.02689351 1237:0.025038944 1260:0.027259808 1308:0.11925132 1310:0.34144985 1319:0.021551304 1322:0.022939773 1350:0.028922209 1383:0.029684872 1421:0.028624668 1449:0.026163175 1645:0.023338816 1676:0.027733529 1679:0.11782469 1696:0.075877743 1729:0.037002973 1766:0.071679403 1773:0.040471058 1784:0.02980282 1791:0.028624668 1813:0.075877743 1831:0.027651742 1836:0.021774313 1898:0.02934523 1911:0.027651742 1952:0.085874005 2018:0.032318005 2094:0.03620127 2102:0.028528899 2170:0.031616795 2179:0.46167401 2187:0.085586697 2198:0.031143073 2385:0.032134304 2398:0.029684872 2401:0.027651742 2404:0.031956436 2500:0.032507934 2527:0.041334667 2575:0.028434739 2657:0.032908273 2687:0.11718931 2815:0.030848144 2824:0.02980282 2878:0.079445933 2893:0.34884985 2894:0.087212464 2961:0.034876933 3116:0.037002973 3128:0.039063103 3137:0.040471058 3182:0.037002973 3483:0.039722967 3491:0.066678874 3562:0.0423561 3599:0.045217932 3786:0.11381662 4071:0.031143073 4109:0.035179837 4775:0.094978994 4776:0.14246849 5263:0.045217932 5554:0.040471058 5983:0.047489497 6833:0.043606232 
1 6:0.0083731296 12:0.056445077 33:0.046334175 54:0.06269432 67:0.094727194 98:0.054313832 132:0.050783228 179:0.045643564 215:0.053342414 218:0.04749558 224:0.07963018 271:0.09241053 318:0.40426995 341:0.069960258 394:0.15600861 443:0.13034087 448:0.075827594 453:0.081215245 531:0.09421609 542:0.23805309 591:0.088044403 603:0.089645254 745:0.11373042 786:0.13253056 820:0.12425973 830:0.29115923 874:0.11441627 1211:0.14557962 1229:0.094506908 1319:0.088378177 1339:0.10106749 1498:0.13765713 1517:0.15558076 1530:0.11373042 1574:0.12834184 1759:0.12709968 1860:0.15358173 2218:0.12425973 2293:0.12480033 2622:0.45522841 2623:0.1517428 3174:0.17369505 4182:0.17369505 4859:0.15777045 
1 6:0.025622091 12:0.2015114 26:0.036966492 27:0.012434231 29:0.12407259 33:0.023630719 41:0.019663396 52:0.034815506 63:0.036921403 65:0.030550902 72:0.10630154 75:0.02596376 83:0.033194229 91:0.10236596 92:0.028190609 108:0.079061391 120:0.03557806 132:0.077699293 142:0.0099662722 154:0.030869639 165:0.082924411 171:0.25846264 178:0.068927232 186:0.12116345 199:0.059883656 203:0.032373656 209:0.026825581 218:0.048446087 227:0.15176986 252:0.030818732 256:0.029061018 259:0.20779652 260:0.053841287 276:0.099521298 296:0.038508211 306:0.033509762 314:0.034077179 317:0.025452202 337:0.032647523 345:0.062676074 355:0.025701165 367:0.036448343 369:0.038186293 376:0.10892276 387:0.030144302 409:0.02180882 414:0.12620952 422:0.038940378 426:0.038443116 453:0.041420284 475:0.034603106 484:0.37758616 499:0.063615009 508:0.033132436 515:0.030852646 530:0.070209661 548:0.048349336 568:0.060070775 574:0.063948992 580:0.11591849 607:0.041889883 647:0.15429468 659:0.062583028 663:0.039966054 667:0.041130959 671:0.026079168 681:0.046728182 709:0.037241103 713:0.042701388 720:0.042516134 742:0.043827483 755:0.044569988 771:0.045304309 784:0.083867044 819:0.042889618 851:0.048501508 854:0.051348122 906:0.099936103 908:0.090842962 909:0.037597995 913:0.044569988 930:0.037388489 1000:0.051846796 1031:0.052474646 1082:0.23412761 1169:0.19249888 1184:0.056246367 1244:0.060278162 1253:0.052261602 1294:0.048501508 1335:0.091804497 1363:0.048349336 1429:0.068825929 1511:0.051545052 1546:0.064220627 1598:0.17872003 1599:0.051745349 1652:0.051154448 1789:0.064821633 1816:0.046927344 2076:0.053252366 2257:0.061606041 2592:0.057832169 2864:0.063103872 2866:0.058531903 2941:0.061374012 3572:0.072342272 3957:0.4454791 5687:0.09120015 
1 55:0.2933411 75:0.17757766 111:0.18265262 142:0.045442501 176:0.15139168 195:0.4067401 487:0.44548102 583:0.45965992 972:0.49889141 
1 6:0.032292549 12:0.16326829 18:0.043215278 27:0.094028158 29:0.029320061 63:0.017450071 83:0.041836018 142:0.012560892 148:0.070965503 165:0.15676944 186:0.045812148 209:0.050714033 216:0.21071751 224:0.076777191 227:0.40169145 240:0.0726771 276:0.062715341 283:0.06051888 287:0.074936094 319:0.073236347 342:0.075416915 355:0.097176627 387:0.11397622 406:0.075696429 504:0.085758737 508:0.062637206 513:0.060412809 625:0.089753123 658:0.074665954 688:0.089620876 767:0.077224705 826:0.10524022 864:0.12032898 882:0.060625462 900:0.11783746 1039:0.11783746 1159:0.08209239 1253:0.098801089 1270:0.28072758 1301:0.21211138 1308:0.09430163 1384:0.1318209 1488:0.1124282 1527:0.10497493 1544:0.10578052 1730:0.11395648 1805:0.11691436 2037:0.13272516 3257:0.14036379 3592:0.1367638 4200:0.16343326 4321:0.1336679 6080:0.16001864 6409:0.17878732 6827:0.37553773 7720:0.16747191 
1 6:0.013344586 12:0.13493811 18:0.035716597 39:0.067013756 41:0.030723472 51:0.045316121 57:0.049813787 75:0.054090139 91:0.053314591 110:0.064393929 111:0.083453958 127:0.13271709 140:0.047149597 142:0.013841782 149:0.074289188 161:0.065114534 176:0.03458542 191:0.34446931 214:0.057164586 215:0.042506951 219:0.055789311 222:0.42547147 341:0.055749207 409:0.034075635 433:0.053957028 506:0.037327862 550:0.054361022 729:0.071817004 756:0.088592048 820:0.19803762 863:0.070515411 1021:0.071435583 1068:0.078624243 1121:0.087652993 1153:0.27968234 1211:0.23201596 1237:0.16364577 1303:0.40908687 1642:0.10331815 1929:0.092319447 2746:0.2596154 3047:0.13225233 3102:0.25530276 3199:0.11829941 3488:0.13225233 
1 6:0.018813205 12:0.10145911 69:0.038173615 83:0.0097492406 100:0.046501887 114:0.026420511 142:0.0087813684 162:0.02037848 202:0.046720647 218:0.064029398 254:0.036313039 262:0.035214436 291:0.030285057 295:0.031947465 307:0.036133487 318:0.13625037 331:0.029413725 339:0.058532473 347:0.030909683 396:0.038217085 443:0.11714279 448:0.034074716 461:0.12351781 485:0.052077203 495:0.041466756 533:0.047125562 542:0.1604612 550:0.03065528 576:0.036833063 609:0.02664526 611:0.048682658 619:0.16542734 651:0.048682658 676:0.037624562 769:0.05470306 795:0.089153956 816:0.0571149 846:0.38143131 859:0.23555633 861:0.050234171 927:0.048328657 947:0.045772826 977:0.05173303 1011:0.090315194 1018:0.040830341 1045:0.019546167 1073:0.10074927 1129:0.043875455 1144:0.051415344 1242:0.047764364 1245:0.036795037 1292:0.045157597 1334:0.058263194 1389:0.047986394 1435:0.056585348 1471:0.043578341 1603:0.054490187 1631:0.20227114 1665:0.040553542 1882:0.11369346 1950:0.063741401 2149:0.057673091 2364:0.1220655 2618:0.22851365 2727:0.39026753 2737:0.064829143 2776:0.31221402 2905:0.074579766 3063:0.066711431 3109:0.2070455 3181:0.068188804 3815:0.2237393 4040:0.070897453 4049:0.078053505 4059:0.076171217 4247:0.08332727 4350:0.08332727 4351:0.08332727 4518:0.15234243 4599:0.08035724 5260:0.08035724 5301:0.08035724 5349:0.08332727 
1 6:0.032224677 11:0.036201746 12:0.2715419 27:0.16420343 41:0.074191434 57:0.060145486 58:0.054041411 77:0.060748217 82:0.12085416 83:0.041748087 98:0.10451562 108:0.074576108 110:0.077749642 111:0.050381422 118:0.052752896 142:0.035514394 203:0.06107409 286:0.090281495 296:0.072647153 369:0.072039844 399:0.075962434 517:0.089830805 531:0.18129918 576:0.078863062 586:0.059220757 598:0.08514076 641:0.063746143 667:0.077595064 688:0.26829754 861:0.3226683 972:0.41283052 1049:0.12751368 1067:0.085689291 1405:0.11411526 1687:0.12348353 1755:0.12474699 1867:0.13436955 1979:0.11904777 2491:0.12410623 2862:0.2729527 3335:0.35419553 4447:0.13539786 6318:0.16711992 7262:0.17841154 
1 6:0.022987342 11:0.15494621 12:0.15496264 13:0.076389202 17:0.031315154 26:0.012436944 27:0.0083667034 29:0.010435693 34:0.022899703 40:0.035907333 41:0.039693118 46:0.024060279 50:0.081823217 53:0.022129211 58:0.01927511 59:0.017842396 63:0.031054436 65:0.020556988 68:0.035279657 72:0.089409778 74:0.023555791 75:0.017470407 77:0.021667247 78:0.11037512 79:0.019486134 83:0.014890414 85:0.017609121 91:0.068879662 98:0.037277896 100:0.017756059 108:0.053198563 111:0.017969691 113:0.030763678 118:0.018815532 132:0.017427346 135:0.10471727 139:0.023507074 140:0.020304937 142:0.012667024 145:0.02411255 148:0.10103311 154:0.041542918 158:0.020624088 159:0.017286356 162:0.062249772 166:0.042879608 173:0.021477258 203:0.19605129 208:0.021527476 209:0.018050307 214:0.024617885 218:0.03259824 219:0.024025623 222:0.036645791 231:0.030804423 240:0.025867474 242:0.040268465 243:0.027093747 254:0.027731195 258:0.054496685 264:0.023654139 275:0.019322577 277:0.078065562 284:0.01744984 286:0.016100484 287:0.026671503 291:0.023127804 304:0.043514998 306:0.045095872 314:0.022929738 317:0.017126192 319:0.026066523 322:0.024902541 334:0.58896569 342:0.026842638 347:0.047209624 357:0.053198563 359:0.031992581 375:0.020369917 377:0.022115629 387:0.020283396 391:0.02973634 394:0.026768839 404:0.024130051 409:0.014674646 411:0.043054952 414:0.021230859 422:0.026202071 430:0.13418251 441:0.020261913 459:0.026247776 461:0.031442302 465:0.024433667 483:0.055797899 505:0.02066914 506:0.016075215 507:0.030728032 508:0.044588084 514:0.030523534 521:0.028334648 530:0.02362122 534:0.043802892 539:0.026695725 548:0.065066277 564:0.035603731 570:0.033335607 575:0.029990104 582:0.02423588 602:0.072952467 626:0.027119303 654:0.030027032 662:0.029953348 666:0.037553013 684:0.080676672 700:0.035528999 706:0.058504148 709:0.025058668 712:0.026386503 714:0.059472679 722:0.036907168 724:0.033622334 764:0.026575354 787:0.033004756 804:0.054136546 811:0.032635531 827:0.02454368 850:0.052679978 851:0.032635531 857:0.04631136 882:0.021578015 909:0.050597625 912:0.027326792 919:0.044971853 936:0.033622334 966:0.028701418 1003:0.060734814 1009:0.02560966 1018:0.062361851 1020:0.036731958 1021:0.061527356 1030:0.043017879 1054:0.037553013 1056:0.028216087 1073:0.038469621 1076:0.03938475 1093:0.036476233 1143:0.034103958 1183:0.040993865 1218:0.034955355 1236:0.031666936 1253:0.070331222 1296:0.029252074 1324:0.068584865 1394:0.037269721 1415:0.042461121 1438:0.079514596 1439:0.033859469 1467:0.070617926 1518:0.036819076 1538:0.036560557 1564:0.046024632 1568:0.042642373 1613:0.032950939 1658:0.041941099 1792:0.033919884 1851:0.038913915 1934:0.049081828 1939:0.03938475 1989:0.04660891 2013:0.045222164 2056:0.037457447 2071:0.102979 2076:0.071664546 2094:0.050945549 2120:0.042461121 2151:0.13148165 2275:0.045222164 2290:0.049508101 2350:0.10087344 2520:0.1067817 2587:0.046918131 2626:0.044971853 2662:0.045222164 2703:0.04449388 2787:0.05414229 2896:0.048292757 3095:0.045480683 3139:0.094479954 3160:0.095851973 3376:0.041941099 3418:0.21356341 3577:0.30893699 3698:0.043616962 3896:0.050945549 3966:0.063634574 3967:0.063634574 4008:0.054972967 4371:0.05414229 4492:0.04449388 5905:0.063634574 6169:0.06136645 7259:0.058169709 7719:0.063634574 
1 6:0.04247925 12:0.28636181 30:0.051067212 34:0.20312303 42:0.10165934 51:0.1154023 52:0.06926538 55:0.08532881 79:0.11522952 85:0.052064984 86:0.065999142 98:0.05510988 108:0.078646241 110:0.081992977 111:0.053131084 118:0.055631986 145:0.071293708 165:0.082488976 179:0.046312537 199:0.039712805 218:0.048191697 227:0.060389168 231:0.091079606 252:0.061313807 258:0.080565323 271:0.4688247 286:0.04760439 309:0.062523697 333:0.25712822 390:0.077606943 403:0.098397656 411:0.12730081 426:0.076482503 466:0.078504961 485:0.058793825 593:0.081829962 609:0.060163627 629:0.10376529 688:0.18862692 819:0.08532881 836:0.09634179 952:0.079147573 1067:0.090365947 1448:0.10664138 1500:0.096955274 1504:0.11870678 1691:0.3573158 1792:0.10029111 2141:0.14066681 2580:0.15786102 2616:0.11280451 2695:0.28340605 3349:0.12958418 
1 12:0.18843487 165:0.2714014 195:0.38927448 227:0.19868964 342:0.26112559 372:0.27593095 700:0.34562665 1296:0.28456462 1709:0.35649081 1770:0.47746877 
1 6:0.05131552 12:0.44767285 15:0.020683718 17:0.016448474 18:0.032316535 27:0.070314582 29:0.032888464 33:0.016703729 34:0.26462055 39:0.060634341 41:0.13899366 42:0.090298449 51:0.041002226 55:0.030317171 57:0.022535867 63:0.019573836 72:0.03757042 75:0.012235249 77:0.045523408 82:0.022641377 83:0.023463839 85:0.036997188 100:0.018652954 108:0.027942866 110:0.087395866 111:0.018877377 114:0.021195723 118:0.019765943 127:0.090062255 139:0.024694464 140:0.021330582 141:0.027573605 142:0.014872375 144:0.017945971 145:0.025330524 148:0.026534125 159:0.018159525 161:0.029457958 164:0.10577863 165:0.14654091 168:0.067256261 180:0.023261295 181:0.050957517 182:0.2455559 185:0.017577805 186:0.15416317 191:0.038959669 199:0.014109887 203:0.022883805 215:0.019230238 216:0.026262547 219:0.025239207 224:0.028707125 227:0.10728081 231:0.032360418 239:0.051183404 240:0.027174094 252:0.043569368 259:0.11016307 260:0.15223409 271:0.033314512 277:0.10934509 283:0.022628114 286:0.033827506 309:0.066643666 330:0.030020752 333:0.030452396 341:0.050442128 342:0.028198515 353:0.033861896 367:0.025764058 369:0.026992555 377:0.023232735 380:0.037092491 396:0.030659466 398:0.023478693 399:0.028462307 403:0.17480254 411:0.045229746 436:0.026662536 441:0.042570769 442:0.025687012 448:0.027336271 454:0.030118384 463:0.037092491 485:0.041778677 496:0.07593654 502:0.0416716 504:0.03206534 506:0.016887207 508:0.02342016 513:0.022588454 517:0.033658637 528:0.031582735 546:0.026079616 615:0.040079237 641:0.023884995 662:0.031466353 671:0.018434451 696:0.033314512 714:0.031238383 720:0.030053168 742:0.030980115 771:0.032024032 772:0.027968079 781:0.032711047 806:0.032403443 840:0.038144351 886:0.051999184 908:0.032106856 912:0.057414249 936:0.070641335 974:0.07754285 987:0.0246436 1009:0.10761302 1045:0.015680816 1048:0.04100045 1050:0.035633247 1068:0.035569781 1074:0.039449893 1075:0.16870521 1082:0.12412246 1105:0.037889488 1145:0.039654407 1149:0.028959399 1232:0.034176454 1242:0.038318723 1245:0.029518636 1270:0.052482265 1301:0.039654407 1308:0.070519086 1313:0.039449893 1331:0.034123191 1382:0.039551519 1385:0.048058792 1409:0.039654407 1462:0.074184983 1493:0.080600228 1503:0.040879537 1518:0.038678883 1551:0.032317615 1560:0.046041021 1698:0.043714481 1722:0.04306455 1741:0.045820145 1776:0.034960508 1956:0.044991216 1979:0.044605919 2026:0.0363655 2066:0.040412801 2154:0.041247704 2207:0.043714481 2464:0.1031221 2542:0.045605006 2626:0.094486947 2713:0.048349431 2715:0.051561052 2728:0.055367073 2729:0.055367073 2750:0.049626166 2783:0.050732123 2794:0.056877129 2819:0.058725288 2838:0.045395314 2876:0.054090339 2902:0.043222314 3519:0.051561052 3724:0.058725288 3944:0.052482265 4020:0.048963222 4137:0.054704129 4166:0.051136222 4829:0.066848888 4960:0.054704129 5612:0.28082841 5639:0.054090339 5808:0.070207103 6337:0.12893239 6443:0.22784403 6623:0.059831246 
1 6:0.0076295641 12:0.051432542 13:0.050707586 69:0.15481044 100:0.094292581 111:0.047713532 132:0.046273486 142:0.0098922855 151:0.060253915 199:0.035663459 218:0.043277793 254:0.0736325 261:0.10489985 307:0.073268419 318:0.27627694 336:0.069754635 351:0.054144496 379:0.093184778 398:0.059343592 406:0.07153734 443:0.11876611 458:0.080326616 461:0.25045894 511:0.098959409 542:0.21691308 576:0.07468696 609:0.054028997 619:0.22362635 720:0.075960913 786:0.12076134 795:0.090389414 846:0.33147173 859:0.23882057 909:0.067173982 927:0.097996751 1011:0.18313349 1045:0.03963406 1073:0.10214541 1138:0.0752348 1193:0.092998696 1602:0.31568858 1631:0.27343217 1679:0.11006765 2618:0.15445353 2655:0.13826747 2776:0.15827028 3021:0.1399431 3438:0.16294159 4006:0.13032319 4054:0.14843116 4418:0.1399431 
1 6:0.025438931 12:0.128617 17:0.0346549 27:0.037036033 34:0.05068389 39:0.51099624 55:0.12774906 75:0.19333618 82:0.095405161 85:0.19487125 108:0.058872163 110:0.061377427 111:0.039772299 120:0.15895678 125:0.068179399 140:0.044940898 142:0.061019338 176:0.16482641 186:0.036089194 191:0.16416641 195:0.088566969 204:0.038178673 211:0.37950007 215:0.040515734 296:0.0573494 321:0.168884 332:0.1633732 339:0.049466703 399:0.059966563 408:0.037448842 446:0.078472449 457:0.043853538 555:0.073290086 557:0.059853982 561:0.05635739 583:0.20018034 641:0.05032273 654:0.0664588 842:0.092101007 961:0.10863276 972:0.43453105 1045:0.033037539 1391:0.080365431 2226:0.10529886 
1 6:0.033503727 12:0.15057058 18:0.059781504 27:0.032518272 29:0.081119336 31:0.042566089 39:0.11216587 42:0.066816287 57:0.083377011 75:0.022633664 108:0.10338154 110:0.10778087 142:0.023168011 180:0.17212182 185:0.065033434 215:0.07114702 283:0.083718302 284:0.067821055 316:0.30429055 350:0.16300949 367:0.095320502 404:0.093784556 423:0.084613769 537:0.12490214 561:0.098965512 668:0.16111346 888:0.16719454 987:0.09117509 1190:0.12085741 1335:0.12004456 1410:0.15403158 1954:0.1581929 2620:0.20239145 2948:0.19800645 3277:0.21365953 4535:0.20484417 6584:0.51949707 7674:0.24732398 8201:0.23850863 
1 6:0.035864916 12:0.40295526 37:0.02828233 39:0.060035401 40:0.037348481 41:0.11009656 42:0.035762596 47:0.028291913 51:0.04059721 63:0.012920325 72:0.037199303 82:0.08967091 83:0.015488044 86:0.046435488 100:0.11081221 142:0.03720118 149:0.19965966 159:0.035960294 168:0.044394607 176:0.12393572 185:0.034808346 222:0.22869947 268:0.057516644 301:0.05417889 308:0.044165928 391:0.061859628 433:0.096676624 441:0.042150259 459:0.054602472 534:0.04556093 538:0.052376687 549:0.063828552 572:0.064775862 667:0.057573692 696:0.065970871 706:0.060852224 757:0.056792538 796:0.052544046 812:0.066953268 858:0.059969134 944:0.065408491 987:0.048800346 1009:0.053275017 1024:0.092559303 1088:0.076776889 1178:0.09461212 1272:0.15107026 1338:0.15107026 1500:0.20464655 1504:0.083519377 1515:0.092083874 1584:0.080253442 1949:0.074380805 2016:0.096340152 2277:0.11435864 2301:0.10598052 2436:0.11629041 2882:0.095743681 2958:0.093553615 3389:0.4840349 3467:0.1731307 3477:0.092559303 3766:0.11106741 3936:0.12100872 4118:0.22213482 4208:0.11106741 4326:0.099699012 4625:0.11263061 5126:0.123999 
1 6:0.021627392 11:0.072889732 12:0.18224366 29:0.019636618 39:0.1086083 55:0.05430415 57:0.04036627 59:0.033573652 63:0.011686892 65:0.03868164 69:0.054854806 75:0.021915792 97:0.03373791 98:0.035072506 105:0.11487095 106:0.037846483 138:0.045339206 140:0.038207362 142:0.0084124467 144:0.064289687 174:0.079267018 214:0.046322941 229:0.028314941 278:0.046677872 291:0.043519088 296:0.097513373 297:0.26409686 310:0.16647485 375:0.1149889 381:0.051974422 413:0.046749889 427:0.057435473 430:0.042081388 478:0.042401014 541:0.11150839 588:0.59287546 613:0.10001254 618:0.15483972 726:0.049827527 761:0.05498 867:0.047527954 882:0.08120577 1045:0.028087494 1215:0.063376721 1258:0.55413729 1476:0.069615053 2146:0.08329313 2157:0.087143084 2824:0.07891966 3715:0.097986097 4327:0.093158324 
