svm_type c_svc
kernel_type rbf
gamma 0.1
nr_class 2
total_sv 37
rho -0.00293106
label 1 -1
nr_sv 12 25
SV
2 1:-0.0849614 2:-0.187647 3:0.186073 4:-0.0295659 5:0.0426903 6:0.0117462 7:-0.0396805 8:-0.0555704 9:-0.111783 
2 1:-0.0252599 2:0.0349097 3:0.215026 4:-0.247634 5:0.0623331 6:-0.0703794 7:-0.00250582 8:-0.0555704 9:-0.111783 
2 1:0.124872 2:0.0935563 3:0.239525 4:-0.269441 5:-0.153738 6:-0.0623279 7:0.0644087 8:-0.0555704 9:-0.111783 
2 1:-0.0753038 2:-0.0402783 3:0.170483 4:0.09816 5:-0.030524 6:0.0165771 7:-0.0536211 8:-0.0555704 9:0.22155 
2 1:-0.0296497 2:0.0364135 3:0.217253 4:-0.104332 5:0.0212617 6:-0.0623279 7:-0.033175 8:-0.0555704 9:-0.111783 
2 1:0.16438 2:0.117616 3:0.243979 4:-0.166638 5:-0.230524 6:-0.0430042 7:0.0170109 8:-0.0555704 9:0.613707 
2 1:-0.0836444 2:-0.0553159 3:0.159347 4:-0.0576033 5:0.0641188 6:0.00369467 7:-0.0350337 8:-0.0555704 9:-0.111783 
2 1:0.127506 2:0.137165 3:0.270705 4:-0.19156 5:-0.205524 6:-0.0800412 7:0.0495388 8:-0.0555704 9:-0.111783 
2 1:-0.0625733 2:-0.0823835 3:0.199436 4:-0.042027 5:-0.00730975 6:0.0181874 7:-0.015517 8:-0.0555704 9:-0.111783 
2 1:-0.0796936 2:0.000323238 3:0.15712 4:-0.0513728 5:-0.0019526 6:0.00369467 7:-0.0285281 8:-0.0555704 9:-0.111783 
2 1:-0.0177972 2:0.0138571 3:0.150438 4:0.0576615 5:-0.126953 6:0.0117462 7:-0.0136582 8:-0.0555704 9:0.0646876 
2 1:-0.0994478 2:0.001827 3:0.159347 4:-0.0700643 5:0.00697597 6:0.0149668 7:-0.0591973 8:-0.0555704 9:-0.111783 
-0.01113849227471706 1:-0.235971 2:0.149195 3:-0.210364 4:0.0296241 5:0.339119 6:-0.0800412 7:-0.127041 8:-0.0555704 9:-0.111783 
-0.004346083769997242 1:0.683256 2:-0.166594 3:-0.597891 4:-0.1386 5:-0.44481 6:-0.0607176 7:0.672215 8:-0.0555704 9:0.358805 
-2 1:-0.0928631 2:-0.00719556 3:0.199436 4:0.0140478 5:0.0123331 6:-0.00757747 7:-0.0694203 8:-0.0555704 9:-0.111783 
-0.1279779782966275 1:0.13848 2:-0.0538121 3:0.215026 4:-0.179099 5:-0.0769526 6:-0.0494454 7:0.082996 8:-0.0555704 9:0.22155 
-0.7654488784312932 1:0.00195696 2:-0.0718572 3:0.235071 4:-0.104332 5:-0.0662383 6:0.0230183 7:0.000282285 8:-0.0555704 9:0.31959 
-1.701068167864138 1:0.00502983 2:0.0349097 3:0.264024 4:-0.054488 5:-0.123381 6:0.00691529 7:-0.0591973 8:-0.0555704 9:0.515668 
-1.428209397633591 1:0.0300518 2:0.0288947 3:0.208345 4:-0.104332 5:-0.0019526 6:-0.057497 7:-0.0183051 8:-0.0555704 9:-0.111783 
-2 1:-0.118324 2:-0.0177219 3:0.170483 4:-0.0731796 5:0.0159045 6:0.0101359 7:-0.0359631 8:-0.0555704 9:-0.111783 
-0.261293859811274 1:0.212229 2:0.0469398 3:0.230616 4:-0.291248 5:-0.160881 6:-0.0655485 7:0.102513 8:-0.0555704 9:0.201942 
-0.007785869098521967 1:-0.123153 2:0.0694962 3:-0.597891 4:0.341151 5:0.103405 6:-0.057497 7:0.0421038 8:0.201572 9:-0.0921752 
-1.635394653170679 1:0.0392704 2:-0.0312557 3:0.143757 4:-0.0513728 5:-0.0519526 6:0.0165771 7:0.0170109 8:-0.0555704 9:0.103903 
-0.6239676171068073 1:-0.272846 2:-0.0628347 3:0.174937 4:-0.101217 5:0.0587617 6:0.0197977 7:-0.0564092 8:-0.0555704 9:0.49606 
-0.4510270669892971 1:-0.0252599 2:-0.0297519 3:0.15712 4:-0.0357964 5:0.019476 6:0.0149668 7:-0.0341043 8:-0.0555704 9:-0.111783 
-0.1540739023504513 1:0.146821 2:-0.277872 3:-0.179183 4:0.0358547 5:0.0373331 6:-0.00435686 7:0.227977 8:-0.0555704 9:-0.111783 
-0.2618919192080204 1:-0.0160413 2:0.045436 3:0.277387 4:0.0296241 5:-0.150167 6:0.00691529 7:-0.0694203 8:-0.0555704 9:0.182335 
-0.3573553688867886 1:0.0805347 2:0.0860375 3:-0.297223 4:0.0576615 5:-0.159095 6:-0.0172393 7:0.148981 8:-0.0555704 9:0.241158 
-2 1:-0.101643 2:-0.0763685 3:0.168256 4:0.00158675 5:0.0730474 6:-0.00918777 7:-0.0638441 8:-0.0555704 9:-0.111783 
-0.2168580636273829 1:0.0269789 2:0.0258871 3:0.148211 4:-0.0669491 5:-0.101953 6:0.0149668 7:-0.00436456 8:-0.0555704 9:-0.111783 
-2 1:0.0326857 2:0.0740074 3:0.232843 4:-0.0825254 5:-0.0948097 6:-0.0703794 7:-0.00622329 8:-0.0555704 9:-0.111783 
-0.04842895223484257 1:0.251737 2:0.0634811 3:0.0479883 4:-0.0856407 5:-0.268024 6:-0.0671588 7:0.170357 8:-0.0555704 9:-0.111783 
-0.2782193475248679 1:0.163941 2:0.0484435 3:0.257342 4:-0.225828 5:-0.159095 6:-0.052666 7:0.072773 8:-0.0555704 9:-0.111783 
-2 1:0.171404 2:0.114609 3:0.250661 4:-0.207136 5:-0.23231 6:-0.0800412 7:0.0681262 8:-0.0555704 9:-0.111783 
-1.665514381720703 1:0.0568297 2:0.204835 3:0.237298 4:-0.359784 5:-0.112667 6:-0.0752103 7:0.00399976 8:-0.0555704 9:-0.111783 
-2 1:-0.0744258 2:-0.0703535 3:0.206117 4:-0.0576033 5:0.0176903 6:0.0101359 7:-0.033175 8:-0.0555704 9:-0.111783 
-2 1:-0.0441361 2:-0.0944136 3:0.208345 4:-0.0482575 5:0.0248331 6:0.0149668 7:-0.0238813 8:-0.0555704 9:-0.111783 
