svm_type c_svc
kernel_type rbf
gamma 0.1
nr_class 2
total_sv 14
rho 0.176647
label 1 -1
nr_sv 6 8
SV
2 1:-0.235971 2:0.149195 3:-0.210364 4:0.0296241 5:0.339119 6:-0.0800412 7:-0.127041 8:-0.0555704 9:-0.111783 
2 1:-0.00331082 2:0.158218 3:-0.0990051 4:0.0545462 5:-0.0483812 6:-0.0800412 7:0.0281633 8:-0.0555704 9:-0.111783 
2 1:0.0225891 2:0.237917 3:-0.424172 4:0.0919294 5:-0.0269526 6:-0.0800412 7:0.0922897 8:-0.0555704 9:-0.111783 
2 1:0.0440992 2:0.0574661 3:-0.0611431 4:-0.0794101 5:0.019476 6:-0.0800412 7:0.0755611 8:-0.0555704 9:-0.111783 
2 1:0.0581466 2:0.173256 3:-0.597891 4:-0.275672 5:0.148047 6:-0.0800412 7:0.210319 8:-0.0555704 9:-0.111783 
2 1:0.00678575 2:0.102579 3:-0.110141 4:0.0670073 5:0.00340454 6:-0.0800412 7:0.0337395 8:-0.0555704 9:-0.111783 
-2 1:-0.0252599 2:0.0349097 3:0.215026 4:-0.247634 5:0.0623331 6:-0.0703794 7:-0.00250582 8:-0.0555704 9:-0.111783 
-1.56857217132717 1:0.0691211 2:-0.0207294 3:-0.597891 4:0.09816 5:0.0676903 6:-0.00435686 7:0.219613 8:-0.0555704 9:-0.111783 
-0.1666352378065137 1:0.180183 2:0.218368 3:-0.107914 4:0.191618 5:-0.426953 6:0.042342 7:0.0746317 8:-0.0555704 9:-0.111783 
-2 1:-0.0296497 2:0.0364135 3:0.217253 4:-0.104332 5:0.0212617 6:-0.0623279 7:-0.033175 8:-0.0555704 9:-0.111783 
-1.10350079592544 1:0.0300518 2:0.0288947 3:0.208345 4:-0.104332 5:-0.0019526 6:-0.057497 7:-0.0183051 8:-0.0555704 9:-0.111783 
-1.161291794940876 1:-0.14159 2:0.216865 3:-0.597891 4:0.303767 5:0.190905 6:-0.0800412 7:-0.0526917 8:0.122207 9:-0.111783 
-2 1:-0.144224 2:0.261977 3:-0.597891 4:0.250808 5:0.151619 6:-0.0800412 7:-0.0573385 8:0.14443 9:-0.111783 
-2 1:0.169209 2:0.153707 3:-0.597891 4:-0.1386 5:0.00340454 6:-0.0639382 7:0.238201 8:-0.0555704 9:0.0450797 
