svm_type c_svc
kernel_type rbf
gamma 0.1
nr_class 2
total_sv 25
rho 0.0776167
label 1 -1
nr_sv 11 14
SV
2 1:0.0691211 2:-0.0207294 3:-0.597891 4:0.09816 5:0.0676903 6:-0.00435686 7:0.219613 8:-0.0555704 9:-0.111783 
2 1:0.097216 2:-0.0838873 3:-0.239317 4:0.225886 5:-0.0840955 6:0.042342 7:0.0690555 8:0.0206201 9:0.888217 
2 1:0.146821 2:-0.277872 3:-0.179183 4:0.0358547 5:0.0373331 6:-0.00435686 7:0.227977 8:-0.0555704 9:-0.111783 
2 1:-0.228508 2:-0.0583234 3:-0.597891 4:0.496914 5:-0.387667 6:0.919959 7:-0.185591 8:-0.0555704 9:-0.111783 
2 1:0.0581466 2:-0.115466 3:-0.597891 4:0.063892 5:0.196262 6:-0.0188496 7:0.23913 8:-0.0555704 9:-0.111783 
2 1:0.123994 2:-0.0658422 3:-0.524395 4:0.0202783 5:0.131976 6:-0.0591073 7:0.214966 8:-0.0555704 9:0.437237 
2 1:0.233739 2:0.00483452 3:-0.597891 4:0.0420852 5:-0.0769526 6:-0.0285114 7:0.305115 8:-0.0555704 9:-0.111783 
2 1:-0.0748648 2:-0.0823835 3:-0.597891 4:0.119967 5:0.219476 6:0.0761584 7:0.112736 8:-0.0555704 9:-0.111783 
2 1:0.0344416 2:-0.101932 3:-0.185865 4:0.129313 5:0.00697597 6:0.0165771 7:0.105301 8:-0.0555704 9:-0.111783 
2 1:-0.226313 2:-0.0613309 3:-0.597891 4:0.490683 5:-0.348381 6:0.919959 7:-0.188379 8:-0.0555704 9:-0.111783 
2 1:0.138041 2:-0.357571 3:-0.217045 4:0.0358547 5:0.140905 6:0.0133565 7:0.247494 8:-0.0555704 9:-0.111783 
-0.9675846224653282 1:-0.0849614 2:-0.187647 3:0.186073 4:-0.0295659 5:0.0426903 6:0.0117462 7:-0.0396805 8:-0.0555704 9:-0.111783 
-0.6673450483961972 1:0.683256 2:-0.166594 3:-0.597891 4:-0.1386 5:-0.44481 6:-0.0607176 7:0.672215 8:-0.0555704 9:0.358805 
-0.3205774648702773 1:-0.0796936 2:-0.0989249 3:0.0368524 4:-0.00152852 5:0.110547 6:0.0117462 7:-0.015517 8:-0.0206498 9:0.31959 
-2 1:-0.127982 2:0.110098 3:-0.597891 4:0.384764 5:0.131976 6:-0.0671588 7:0.0105053 8:0.13808 9:-0.0137438 
-2 1:-0.0753038 2:-0.0402783 3:0.170483 4:0.09816 5:-0.030524 6:0.0165771 7:-0.0536211 8:-0.0555704 9:0.22155 
-2 1:0.280271 2:-0.294414 3:-0.597891 4:0.135543 5:-0.0823097 6:0.0503935 7:0.398052 8:-0.0555704 9:0.554884 
-2 1:-0.0862783 2:0.144684 3:-0.597891 4:0.403456 5:0.0355474 6:-0.0800412 7:0.0458213 8:0.115858 9:-0.111783 
-2 1:0.180183 2:0.218368 3:-0.107914 4:0.191618 5:-0.426953 6:0.042342 7:0.0746317 8:-0.0555704 9:-0.111783 
-1.145547537803282 1:-0.123153 2:0.0694962 3:-0.597891 4:0.341151 5:0.103405 6:-0.057497 7:0.0421038 8:0.201572 9:-0.0921752 
-2 1:-0.0805716 2:-0.219226 3:-0.597891 4:-0.0794101 5:0.451619 6:0.354741 7:-0.00250582 8:-0.0555704 9:-0.111783 
-1.024530125401828 1:-0.30972 2:0.0424285 3:0.114803 4:0.113736 5:0.0284045 6:0.203373 7:-0.327785 8:0.322207 9:-0.111783 
-1.874415201063087 1:0.363239 2:-0.327496 3:-0.597891 4:-0.210251 5:0.0998331 6:-0.0800412 7:0.531881 8:-0.0555704 9:-0.111783 
-2 1:0.396162 2:-0.359075 3:-0.597891 4:-0.216482 5:0.0766188 6:-0.0800412 7:0.557903 8:-0.0555704 9:-0.111783 
-2 1:-0.093741 2:0.11912 3:-0.597891 4:0.419032 5:0.144476 6:-0.0736 7:0.00771723 8:0.0714137 9:0.0646876 
