svm_type c_svc
kernel_type rbf
gamma 0.1
nr_class 2
total_sv 53
rho 0.318309
label 1 -1
nr_sv 26 27
SV
1 1:-0.127982 2:0.110098 3:-0.597891 4:0.384764 5:0.131976 6:-0.0671588 7:0.0105053 8:0.13808 9:-0.0137438 
1 1:-0.0515988 2:0.201827 3:-0.597891 4:0.172926 5:0.0659045 6:-0.0800412 7:-0.0396805 8:0.449192 9:0.0450797 
1 1:-0.0862783 2:0.144684 3:-0.597891 4:0.403456 5:0.0355474 6:-0.0800412 7:0.0458213 8:0.115858 9:-0.111783 
1 1:0.180183 2:0.218368 3:-0.107914 4:0.191618 5:-0.426953 6:0.042342 7:0.0746317 8:-0.0555704 9:-0.111783 
1 1:-0.123153 2:0.0694962 3:-0.597891 4:0.341151 5:0.103405 6:-0.057497 7:0.0421038 8:0.201572 9:-0.0921752 
1 1:-0.0840834 2:0.230398 3:-0.597891 4:0.132428 5:0.081976 6:-0.0800412 7:-0.0266694 8:0.382525 9:-0.111783 
1 1:-0.14159 2:0.216865 3:-0.597891 4:0.303767 5:0.190905 6:-0.0800412 7:-0.0526917 8:0.122207 9:-0.111783 
1 1:-0.045892 2:0.231902 3:-0.597891 4:0.110621 5:0.0605474 6:-0.0800412 7:-0.0322456 8:0.436493 9:-0.111783 
1 1:0.231983 2:0.358218 3:-0.190319 4:-0.042027 5:-0.396595 6:-0.0301218 7:-0.0322456 8:0.477763 9:-0.111783 
1 1:-0.0665242 2:0.227391 3:-0.597891 4:0.169811 5:0.0730474 6:-0.0800412 7:-0.0517623 8:0.449192 9:-0.111783 
0.9294774914119736 1:-0.0783767 2:0.209346 3:-0.597891 4:0.169811 5:0.081976 6:-0.0800412 7:-0.0629147 8:0.487287 9:-0.111783 
1 1:-0.0480869 2:0.194308 3:-0.597891 4:0.278845 5:0.112333 6:-0.0800412 7:-0.000647083 8:0.153953 9:-0.111783 
1 1:-0.0963749 2:0.231902 3:-0.597891 4:0.257038 5:0.115905 6:-0.0800412 7:-0.0229519 8:0.157128 9:-0.111783 
1 1:-0.0814495 2:0.146188 3:-0.597891 4:0.154235 5:0.171262 6:-0.0800412 7:-0.0443274 8:0.442842 9:-0.111783 
1 1:0.210034 2:0.00483452 3:0.145984 4:-0.0669491 5:-0.0483812 6:0.0165771 7:-0.0117995 8:-0.0555704 9:-0.111783 
1 1:0.000640011 2:0.137165 3:0.128166 4:0.241462 5:-0.250167 6:0.155063 7:-0.294327 8:0.46189 9:-0.111783 
1 1:-0.0805716 2:-0.219226 3:-0.597891 4:-0.0794101 5:0.451619 6:0.354741 7:-0.00250582 8:-0.0555704 9:-0.111783 
1 1:-0.093741 2:0.110098 3:-0.597891 4:0.44707 5:-0.00730975 6:-0.0671588 7:0.0207284 8:0.280938 9:-0.111783 
1 1:0.100289 2:0.14318 3:-0.597891 4:0.179157 5:0.137333 6:-0.0800412 7:-0.0480449 8:0.465065 9:-0.111783 
1 1:-0.30972 2:0.0424285 3:0.114803 4:0.113736 5:0.0284045 6:0.203373 7:-0.327785 8:0.322207 9:-0.111783 
1 1:-0.144224 2:0.261977 3:-0.597891 4:0.250808 5:0.151619 6:-0.0800412 7:-0.0573385 8:0.14443 9:-0.111783 
1 1:-0.10296 2:0.216865 3:-0.597891 4:0.291306 5:0.112333 6:-0.0800412 7:-0.0183051 8:0.147604 9:0.0646876 
1 1:-0.0998868 2:0.240925 3:-0.597891 4:0.331805 5:0.0712617 6:-0.0719897 7:-0.0117995 8:0.112684 9:-0.111783 
1 1:-0.0981308 2:0.0709999 3:-0.201455 4:0.107506 5:0.0801903 6:-0.0800412 7:-0.0266694 8:0.185699 9:-0.111783 
1 1:-0.0551106 2:0.123632 3:-0.597891 4:0.197848 5:0.126619 6:-0.0800412 7:-0.0313162 8:0.474588 9:-0.111783 
1 1:-0.093741 2:0.11912 3:-0.597891 4:0.419032 5:0.144476 6:-0.0736 7:0.00771723 8:0.0714137 9:0.0646876 
-1 1:-0.235971 2:0.149195 3:-0.210364 4:0.0296241 5:0.339119 6:-0.0800412 7:-0.127041 8:-0.0555704 9:-0.111783 
-0.09916618658549722 1:-0.0796936 2:-0.0989249 3:0.0368524 4:-0.00152852 5:0.110547 6:0.0117462 7:-0.015517 8:-0.0206498 9:0.31959 
-1 1:0.000201029 2:-0.0402783 3:0.0346252 4:-0.0513728 5:0.0355474 6:0.00852559 7:0.0105053 8:-0.0555704 9:-0.111783 
-1 1:-0.0928631 2:-0.00719556 3:0.199436 4:0.0140478 5:0.0123331 6:-0.00757747 7:-0.0694203 8:-0.0555704 9:-0.111783 
-1 1:-0.0568666 2:0.0108496 3:0.177164 4:0.0825836 5:-0.0233812 6:0.0197977 7:-0.0898664 8:-0.0555704 9:-0.111783 
-1 1:-0.0911071 2:-0.10494 3:0.143757 4:0.0140478 5:0.112333 6:0.0278493 7:-0.0666322 8:-0.0555704 9:-0.111783 
-1 1:0.0691211 2:-0.0207294 3:-0.597891 4:0.09816 5:0.0676903 6:-0.00435686 7:0.219613 8:-0.0555704 9:-0.111783 
-1 1:-0.0112125 2:-0.0673459 3:0.0613513 4:-0.00464378 5:0.0480474 6:0.0165771 7:-0.015517 8:-0.0111259 9:-0.111783 
-1 1:0.280271 2:-0.294414 3:-0.597891 4:0.135543 5:-0.0823097 6:0.0503935 7:0.398052 8:-0.0555704 9:0.554884 
-1 1:0.097216 2:-0.0838873 3:-0.239317 4:0.225886 5:-0.0840955 6:0.042342 7:0.0690555 8:0.0206201 9:0.888217 
-1 1:-0.10691 2:-0.0477971 3:0.201663 4:0.0233936 5:0.0801903 6:0.0278493 7:-0.104736 8:-0.0555704 9:-0.111783 
-1 1:-0.00331082 2:0.158218 3:-0.0990051 4:0.0545462 5:-0.0483812 6:-0.0800412 7:0.0281633 8:-0.0555704 9:-0.111783 
-1 1:0.0225891 2:0.237917 3:-0.424172 4:0.0919294 5:-0.0269526 6:-0.0800412 7:0.0922897 8:-0.0555704 9:-0.111783 
-1 1:0.0440992 2:0.0574661 3:-0.0611431 4:-0.0794101 5:0.019476 6:-0.0800412 7:0.0755611 8:-0.0555704 9:-0.111783 
-1 1:-0.228508 2:-0.0583234 3:-0.597891 4:0.496914 5:-0.387667 6:0.919959 7:-0.185591 8:-0.0555704 9:-0.111783 
-1 1:0.0581466 2:-0.115466 3:-0.597891 4:0.063892 5:0.196262 6:-0.0188496 7:0.23913 8:-0.0555704 9:-0.111783 
-1 1:0.123994 2:-0.0658422 3:-0.524395 4:0.0202783 5:0.131976 6:-0.0591073 7:0.214966 8:-0.0555704 9:0.437237 
-1 1:0.233739 2:0.00483452 3:-0.597891 4:0.0420852 5:-0.0769526 6:-0.0285114 7:0.305115 8:-0.0555704 9:-0.111783 
-1 1:-0.0748648 2:-0.0823835 3:-0.597891 4:0.119967 5:0.219476 6:0.0761584 7:0.112736 8:-0.0555704 9:-0.111783 
-1 1:0.0344416 2:-0.101932 3:-0.185865 4:0.129313 5:0.00697597 6:0.0165771 7:0.105301 8:-0.0555704 9:-0.111783 
-0.9297915303521536 1:0.363239 2:-0.327496 3:-0.597891 4:-0.210251 5:0.0998331 6:-0.0800412 7:0.531881 8:-0.0555704 9:-0.111783 
-1 1:-0.226313 2:-0.0613309 3:-0.597891 4:0.490683 5:-0.348381 6:0.919959 7:-0.188379 8:-0.0555704 9:-0.111783 
-1 1:0.0357585 2:0.0950601 3:0.199436 4:-0.0233354 5:-0.101953 6:0.0101359 7:-0.061056 8:-0.0555704 9:-0.111783 
-1 1:0.0581466 2:0.173256 3:-0.597891 4:-0.275672 5:0.148047 6:-0.0800412 7:0.210319 8:-0.0555704 9:-0.111783 
-0.9005197744743227 1:-0.0959359 2:-0.0598271 3:0.181619 4:0.0109325 5:0.0426903 6:0.0165771 7:-0.0777846 8:-0.0555704 9:-0.111783 
-1 1:0.169209 2:0.153707 3:-0.597891 4:-0.1386 5:0.00340454 6:-0.0639382 7:0.238201 8:-0.0555704 9:0.0450797 
-1 1:0.00678575 2:0.102579 3:-0.110141 4:0.0670073 5:0.00340454 6:-0.0800412 7:0.0337395 8:-0.0555704 9:-0.111783 
