svm_type c_svc
kernel_type rbf
gamma 0.1
nr_class 2
total_sv 5
rho -0.400085
label 1 -1
nr_sv 3 2
SV
0.2039233767866874 1:0.0024 2:0.1245 3:0.0312 4:0.0413 5:0.2141 
0.7960766232133126 1:0.0031 2:0.1112 3:0.0632 4:0.0245 5:0.1012 
1 1:0.0015 2:0.0731 3:0.0524 4:0.0212 5:0.0342 
-1 1:0.0012 2:0.0943 3:0.0421 4:0.0312 5:0.0324 
-1 1:0.0029 2:0.0812 3:0.0123 4:0.0743 5:0.1035 
