svm_type c_svc
kernel_type rbf
gamma 0.1
nr_class 2
total_sv 4
rho -0.666843
label 1 -1
nr_sv 2 2
SV
1 1:0.0024 2:0.1245 3:0.0312 4:0.0413 5:0.2141 
1 1:0.0015 2:0.0731 3:0.0524 4:0.0212 5:0.0342 
-1 1:0.0022 2:0.0421 3:0.0914 4:0.0512 5:0.2112 
-1 1:0.0029 2:0.0812 3:0.0123 4:0.0743 5:0.1035 
