svm_type c_svc
kernel_type rbf
gamma 0.1
nr_class 2
total_sv 11
rho 0.21264
label 1 -1
nr_sv 5 6
SV
0.2314011733385241 1:5.7 2:3.8 3:1.7 4:0.3 
0.5607295267048976 1:5.1 2:3.3 3:1.7 4:0.5 
0.3394941581903744 1:4.8 2:3.4 3:1.9 4:0.2 
1 1:4.5 2:2.3 3:1.3 4:0.3 
1 1:5.1 2:3.8 3:1.9 4:0.4 
-1 1:4.9 2:2.4 3:3.3 4:1 
-0.408312171482234 1:5 2:2 3:3.5 4:1 
-0.1972623030081061 1:5.6 2:2.9 3:3.6 4:1.3 
-1 1:5.7 2:2.6 3:3.5 4:1 
-0.3530997677397586 1:7.7 2:3.8 3:6.7 4:2.2 
-0.1729506160036973 1:7.7 2:2.6 3:6.9 4:2.3 
