svm_type c_svc
kernel_type rbf
gamma 0.1
nr_class 2
total_sv 35
rho 1.18298
label 1 -1
nr_sv 18 17
SV
1 1:7 2:3.2 3:4.7 4:1.4 
0.4880393578505529 1:6.4 2:3.2 3:4.5 4:1.5 
1 1:6.9 2:3.1 3:4.9 4:1.5 
1 1:6.5 2:2.8 3:4.6 4:1.5 
0.600476384435025 1:5.7 2:2.8 3:4.5 4:1.3 
1 1:6.3 2:3.3 3:4.7 4:1.6 
1 1:4.9 2:2.4 3:3.3 4:1 
1 1:5.2 2:2.7 3:3.9 4:1.4 
0.7309321961092617 1:5 2:2 3:3.5 4:1 
1 1:6.1 2:2.9 3:4.7 4:1.4 
1 1:5.6 2:3 3:4.5 4:1.5 
1 1:6.2 2:2.2 3:4.5 4:1.5 
1 1:5.9 2:3.2 3:4.8 4:1.8 
1 1:6.3 2:2.5 3:4.9 4:1.5 
1 1:6.8 2:2.8 3:4.8 4:1.4 
1 1:6.7 2:3 3:5 4:1.7 
1 1:6 2:2.9 3:4.5 4:1.5 
1 1:6 2:2.7 3:5.1 4:1.6 
-0.8194479383948395 1:5.4 2:3.4 3:1.7 4:0.2 
-1 1:5.1 2:3.3 3:1.7 4:0.5 
-1 1:5.1 2:3.8 3:1.9 4:0.4 
-1 1:5.8 2:2.7 3:5.1 4:1.9 
-1 1:6.3 2:2.9 3:5.6 4:1.8 
-1 1:4.9 2:2.5 3:4.5 4:1.7 
-1 1:6.7 2:2.5 3:5.8 4:1.8 
-1 1:6.5 2:3.2 3:5.1 4:2 
-1 1:6.4 2:2.7 3:5.3 4:1.9 
-1 1:6.8 2:3 3:5.5 4:2.1 
-1 1:5.7 2:2.5 3:5 4:2 
-1 1:5.8 2:2.8 3:5.1 4:2.4 
-1 1:6.4 2:3.2 3:5.3 4:2.3 
-1 1:6.5 2:3 3:5.5 4:1.8 
-1 1:6 2:2.2 3:5 4:1.5 
-1 1:5.6 2:2.8 3:4.9 4:2 
-1 1:6.3 2:2.7 3:4.9 4:1.8 
